{
  "layers": [
    {
      "type": "fc",
      "name": "fc1",
      "in": 256,
      "out": 128,
      "weights": [
        -0.3656357558875988,
        0.3474337369372327,
        0.26377461897661403,
        -0.2449309742605783,
        -0.004564912908059049,
        -0.050508935211261874,
        0.15159297272276295,
        0.2887233511355132,
        -0.4061404132257651,
        -0.4716525234779937,
        0.3357651039198697,
        -0.06723293209494663,
        0.262280082457942,
        -0.4978939466488893,
        -0.05461280594519857,
        0.22154003234078257,
        -0.27123777872954735,
        0.4452706955539223,
        0.4014274576114836,
        -0.46941001696644646,
        -0.4745541390065392,
        0.04141247279349658,
        0.43914916277851057,
        -0.11879576231178757,
        -0.2834006028693866,
        -0.07788342441728269,
        -0.47095921242513206,
        -0.27830833372696495,
        -0.06211240634942794,
        -0.004187758618149351,
        -0.26691554974242737,
        -0.2691334584590157,
        -0.2812189626623114,
        -0.040396534262266415,
        -0.21021838540951443,
        -0.4785102947340911,
        0.33757797566257286,
        0.05645432265243344,
        0.14229436293244557,
        -0.3140937341052823,
        0.4925434121760651,
        0.3599465287952899,
        -0.3791100401941936,
        -0.1673048146398709,
        0.22148440758326837,
        0.21119176969527964,
        0.43644058679945963,
        -0.07789300003858479,
        0.330035693274327,
        0.17030556641407102,
        -0.1966314890670824,
        0.08758060614355945,
        0.3824790008318577,
        0.34619741842831275,
        0.005283820579600418,
        0.08900225798255168,
        -0.4654741698486584,
        -0.25726002645693236,
        0.29740424755430284,
        -0.08568600069922572,
        -0.3269925984209491,
        0.04879876138815298,
        0.20304076206563149,
        0.17448583050232724,
        -0.12529697949835972,
        -0.06103836995543688,
        0.008426488249981823,
        0.2784426150001458,
        0.020938417613145188,
        -0.10674490503577394,
        -0.010306479537741775,
        -0.47042503603309294,
        -0.45651270964347257,
        0.203382088603836,
        0.4831877173096739,
        0.09318373038005756,
        -0.10640031362208602,
        -0.3296508031443187,
        0.0022385584334830844,
        0.48207663753853425,
        0.27052313983080056,
        0.03961744844977877,
        0.3602897789205496,
        -0.2678238719369854,
        0.013771663187637007,
        0.4524673882682695,
        0.07779480780120307,
        -0.04086826808933164,
        -0.23072052255857878,
        0.04799630946624889,
        0.45711628146022687,
        -0.4942908705496071,
        0.28365523261538983,
        0.3204859119254819,
        0.38617958082600823,
        0.24050341183319635,
        0.30913990087247956,
        0.01867828352300205,
        0.06135786477837901,
        -0.07390932031184982,
        -0.4438767024792596,
        0.3700101551766398,
        0.06999933387638024,
        -0.30016057982285693,
        0.00472046742886334,
        -0.015074887772265844,
        -0.1432100354550443,
        -0.15392208098184512,
        0.038478795737844296,
        0.12348945279750512,
        0.11245246478272564,
        -0.041853199900275584,
        -0.47202501591615764,
        -0.2703949687229761,
        -0.3227887410614173,
        0.08446087077844133,
        0.36100886085332484,
        0.29843894057742604,
        0.29709756263549625,
        0.3164373705606909,
        -0.24470595991269406,
        0.341744832274096,
        0.17311352543870706,
        -0.4167658621961021,
        -0.4833093698844404,
        -0.4854400250751877,
        0.2555867752521982,
        -0.2504407743465772,
        -0.3905113727056406,
        0.12480208415247629,
        -0.15557713590350508,
        -0.4304846214691527,
        -0.3403744753061525,
        0.027380399048012816,
        -0.33185505377757174,
        -0.2270855631813199,
        0.21158992718527292,
        -0.045298369954336115,
        -0.17799823361267408,
        -0.026228985829721108,
        -0.47636542236801294,
        -0.11344289523853013,
        -0.07908132079092411,
        -0.3119606952486871,
        -0.39123830755458666,
        0.3998185003560202,
        0.010115980928676382,
        -0.2909090074482299,
        0.10564864003401653,
        0.3170396683778869,
        -0.47918189149071266,
        -0.4821354791722047,
        -0.353538259600654,
        0.21883547276178983,
        -0.33977240737029535,
        0.20460562785200254,
        0.1781757952769475,
        0.04470216357890444,
        -0.27940025197732343,
        0.4755945178178834,
        0.297810857706151,
        0.01659951694939299,
        -0.27680421975332925,
        0.14850641809925635,
        -0.10510199014170041,
        0.07584596278805666,
        -0.17875419065487475,
        0.13094786127134694,
        -0.4412148837935087,
        -0.20139405037698666,
        0.46790331015088915,
        0.37553424423515924,
        -0.19361337966675407,
        0.3585144063565593,
        -0.18963637264686595,
        0.43928843213528246,
        0.24384211866712113,
        -0.0838277372349745,
        -0.24764189772016465,
        -0.49151973753633116,
        0.3787178982088466,
        -0.4620834694014194,
        0.31941411061279723,
        0.462201125180818,
        0.0702805702451802,
        -0.3284829048222814,
        0.36778106443499337,
        0.47377523615969164,
        0.20402314233007135,
        0.008873746077890488,
        -0.12203116565639194,
        -0.15306911543737833,
        -0.2942382427052953,
        0.17415301424686414,
        -0.06704987889968372,
        -0.3058813550148104,
        -0.3955757771584847,
        0.1659575282786826,
        -0.20392732691684845,
        -0.00020007776319841408,
        -0.17465434512400368,
        0.37162150742355515,
        0.39967826963478115,
        -0.48190701635952826,
        -0.2991469885592406,
        -0.17225929490373248,
        0.4870497179280261,
        0.28270037572937556,
        -0.1609043521490663,
        -0.28697020361918624,
        0.17445506972376323,
        0.33770107015396433,
        0.4321874718936273,
        -0.15615018520918023,
        0.3823932024664636,
        0.18711018215365738,
        -0.015501277387505952,
        0.4855082298257978,
        -0.2653595651289615,
        0.22546518624127243,
        -0.4153197695835158,
        -0.3303058582056124,
        0.41098778350806786,
        -0.28703180500857584,
        0.2591161827164402,
        0.10020883013224957,
        0.34113219570585507,
        -0.1318920005943509,
        -0.15971476499801196,
        -0.20878471258886533,
        0.3674198235869027,
        0.10398252889171122,
        0.4543074571721899,
        0.38726510471696274,
        -0.36465402260454705,
        0.05117047406921649,
        -0.3957250019853864,
        -0.4608622014030894,
        -0.42680658116765147,
        0.36616835736657205,
        0.28811644872522635,
        0.32850597146911353,
        -0.1591025358834166,
        0.11518603255903659,
        0.28190360163275474,
        -0.12196037116161262,
        0.07078152559902329,
        -0.2762859272512308,
        -0.4182567376476063,
        -0.23327635701826366,
        0.39076812785530535,
        0.0644468332401974,
        0.42506720210847326,
        -0.042230740958754676,
        -0.22281723389230168,
        0.2870146635603288,
        0.32776815664572967,
        -0.4876182555133334,
        0.17041163902393097,
        -0.4083168773834822,
        -0.3848975015720727,
        0.38506007037966106,
        -0.4599764631098353,
        -0.2603666351324907,
        0.48815849860603266,
        -0.07898641256973271,
        -0.3844418194077267,
        -0.3326165625386682,
        -0.2585797149021569,
        0.24400641653700839,
        -0.3971658540136902,
        0.4107644182793333,
        -0.12172272945577389,
        0.4702640365282106,
        0.40922272815071126,
        -0.20597641505145226,
        -0.24658986395887328,
        -0.022989904027732155,
        -0.399870856049548,
        0.15205019948941723,
        -0.4603797865862955,
        -0.4894938484813277,
        0.4825836265504634,
        -0.2044501399510822,
        0.09657064318844133,
        -0.05015546536990223,
        -0.18671913893107206,
        -0.4370352099523547,
        0.41339201716594043,
        0.4698132768381156,
        0.4697965044964699,
        -0.3886376898731081,
        -0.28480672996390155,
        0.1178068800115557,
        0.479952885890077,
        0.04291319748471556,
        0.18818980804771257,
        0.16183442887534927,
        -0.240914008146355,
        0.04160226291296554,
        -0.19267888218748652,
        -0.25361880391490776,
        -0.4186312346162122,
        -0.2192132764353245,
        0.48337671721940245,
        -0.052097759466704474,
        0.15201053451267055,
        0.14346608026984164,
        0.440734522249,
        -0.10952144886107684,
        -0.1932157051484864,
        -0.1727585853128668,
        -0.18326485311439789,
        0.34713476582621505,
        0.393500245521601,
        -0.19719067032748372,
        -0.16566659434923814,
        0.044225414182184175,
        0.07898543631708388,
        0.09596254000100435,
        -0.2549019961047514,
        -0.47962597155374764,
        -0.2562407001720842,
        -0.4276724661285891,
        0.05120475491550602,
        -0.42908363246046555,
        -0.424870207745477,
        0.1353820935630572,
        -0.2091784495806044,
        0.29218475788229237,
        -0.006738957249862065,
        0.3626489777797094,
        -0.34582040383715595,
        0.0014295859466932903,
        0.29498349374602395,
        -0.4228930137360839,
        0.4492279489729363,
        -0.3267578916283964,
        0.27620898298593555,
        0.4848958711440725,
        0.3215501447435144,
        -0.18021599720699433,
        -0.3931222654184402,
        0.014358251055249238,
        0.41935693921068795,
        -0.20651050562933226,
        0.3937587976957898,
        -0.3583193529733051,
        0.4104816743927341,
        -0.46824005410266334,
        -0.18393132223911712,
        0.4030882837141124,
        0.3038562809839719,
        0.4071537669967973,
        0.3407185222467378,
        0.2461848854045222,
        0.1895951793002646,
        -0.3218451343556764,
        -0.06736199902376305,
        -0.34210305624783943,
        0.21482445196881128,
        0.16777873968554202,
        -0.24741359220611658,
        -0.4355858066523387,
        0.4633858833215757,
        0.30825262837239653,
        0.04926993139251923,
        0.04137765198498067,
        0.3512926663313799,
        -0.046690322377782145,
        -0.10428955527923256,
        -0.16133085510494116,
        -0.2420309075282283,
        -0.4755914971748958,
        0.14643884400009688,
        -0.08331611770159009,
        0.07060363157772254,
        -0.43767836919647896,
        -0.14505655631370418,
        -0.3617158860449021,
        -0.37487098471450964,
        -0.24088703108417198,
        0.32893438098515815,
        -0.10220268693512724,
        -0.09891784807909865,
        0.11244492299293896,
        -0.26647034670415004,
        -0.49252282695786576,
        0.028701739886713207,
        0.0008996195572266164,
        0.1488395923408533,
        -0.0616830443582842,
        0.18651313065820063,
        0.23142194916107184,
        -0.2616253248379762,
        -0.004927749283989091,
        -0.02117311241820663,
        -0.274937914961233,
        -0.0877538670826592,
        0.06040743448798902,
        0.40693950450584826,
        0.41770658383822223,
        -0.22477463653420093,
        0.14641517564258855,
        -0.4518026566385962,
        -0.4284486117721029,
        0.011691709200206568,
        0.377424078946487,
        -0.34053226924216895,
        0.26602785879731217,
        0.3830095693755464,
        -0.1881979681646977,
        0.19255696460281457,
        0.34899112248657516,
        -0.1283856692524351,
        0.20128266290780872,
        0.2364181165753182,
        0.0945778048409015,
        0.3562771389130047,
        0.39660437111634883,
        0.4600788169648591,
        0.07123269421754552,
        -0.32372410479352465,
        -0.2494045911226207,
        -0.28238131149341694,
        0.06951734959779432,
        0.2577501146664367,
        -0.44786677885781356,
        0.18163645560746822,
        0.21715326336751073,
        -0.1520184920431923,
        0.015055804293341857,
        -0.33520184796882513,
        0.22989615048699863,
        -0.45929131266345113,
        0.48122105814815896,
        0.30794373344767034,
        0.12844850198214075,
        -0.23247375535288828,
        0.41286289009243193,
        0.4594388378770715,
        -0.36087384097852904,
        0.27575725031571563,
        0.3419308585435238,
        0.15971735631398254,
        0.20040776641673053,
        -0.054941267885488365,
        0.42430780262492807,
        0.4712075281962813,
        -0.11764668717982552,
        0.30271153080035684,
        -0.06707840861946368,
        -0.3352457813167262,
        -0.17453272314273605,
        -0.3736699251651575,
        0.40888475990270456,
        0.4594240800441438,
        -0.38081326759412515,
        0.10067908118705848,
        -0.09177590229141686,
        -0.38190996899821084,
        -0.204524485188183,
        -0.2517836289193519,
        0.24957681118975672,
        -0.49599104404595407,
        -0.31016129606691634,
        -0.061226929880063063,
        -0.47896532691412874,
        0.12752658853748045,
        0.10562753857850415,
        0.33533235088286384,
        -0.29339418431481534,
        -0.21521838643841118,
        0.0423394307527486,
        -0.22677430278706812,
        0.08573808340295896,
        -0.24911777054999085,
        0.1835271525859573,
        0.29109071836800193,
        0.3086546201638074,
        0.4736161095498469,
        0.045377003825868845,
        -0.009190720170985656,
        0.35569769979864363,
        0.2690673858593793,
        0.07054462938703521,
        -0.11674361523373622,
        -0.21595255426644078,
        -0.39186079126583195,
        0.3075490893732804,
        -0.38192846946933445,
        0.2472652346880435,
        0.045287089768145994,
        0.4649453287863279,
        0.2610656598531885,
        0.47351978458005384,
        -0.36340598706019245,
        0.00037147383188651517,
        0.07257828716545467,
        -0.1887485426875265,
        0.0030324882064975967,
        -0.14318123639665403,
        0.028393971351443503,
        -0.4991552820511105,
        -0.057685667887571124,
        -0.05044785626074111,
        -0.19520081177878867,
        -0.1005972524034594,
        0.2830873111719908,
        0.18341288396280286,
        -0.00770086710829021,
        0.14766824184218308,
        -0.12244178814898699,
        -0.29608594956332024,
        -0.4961243421224443,
        -0.22237874839057814,
        0.098164198713661,
        0.3816629330706961,
        0.32942124998853006,
        0.010960207871193117,
        0.487018145049427,
        -0.038419026130196654,
        0.33459348616683826,
        -0.09103465871902883,
        0.24463061773873163,
        0.48759169122268164,
        -0.19466340763202383,
        -0.3296871747867157,
        0.12003370872766084,
        0.03095618037403458,
        -0.140577968014846,
        -0.49648075790294877,
        -0.1108373583901957,
        -0.07413052789633989,
        -0.09474792826168099,
        0.36124530897755047,
        0.08442802708213193,
        0.23383079245316785,
        0.39790917163711037,
        0.24877346357513752,
        -0.0072979480949530995,
        0.24576834028684624,
        0.14035540049526374,
        0.14874543466334045,
        0.12967535868865487,
        -0.0930010250115072,
        0.12926203128758806,
        0.13373251094562755,
        0.4371179595389777,
        0.28247368537082296,
        0.34626806660109066,
        0.2674997901425722,
        0.31532586199102886,
        0.1054623947302108,
        -0.15054991161331632,
        -0.23541674168186366,
        0.20802002706482947,
        0.3739420748131903,
        0.04424675780288012,
        -0.3479300330424998,
        0.33297528519742825,
        -0.01545692108853236,
        -0.03289737172181573,
        -0.45461194015428075,
        0.010280922790095848,
        0.24474766545471716,
        -0.07740218885426009,
        -0.14482268641144858,
        0.15684353889885183,
        -0.4802586126019154,
        0.007163596974641417,
        0.44612709553261953,
        0.1904475919384765,
        -0.09807627174278744,
        0.18890823629346176,
        0.10499391931595858,
        -0.2911106085174323,
        -0.2922916692701465,
        0.3860252896990286,
        -0.23093078979436932,
        -0.4251152224898709,
        0.33067759059622714,
        0.02319776757646308,
        -0.1317918340270473,
        0.011518922132633058,
        0.2367256883512614,
        -0.33144639211240223,
        0.15306699823652525,
        0.21343699839984098,
        0.31500344392837787,
        -0.23023936632386166,
        0.1096663306641944,
        -0.2678861216265028,
        0.061044673619535805,
        -0.3276370280711055,
        0.28976762488128116,
        0.3667178646504996,
        -0.17035643967947145,
        -0.27768143818700664,
        0.46378841705583207,
        0.20669031325152099,
        0.34379262224465756,
        -0.4694655250625902,
        0.39939331165277425,
        0.1224520608976366,
        -0.18347084575893258,
        -0.06823437710759184,
        0.26159299350102605,
        0.285411955930974,
        -0.31009913181856774,
        0.12588650533798007,
        -0.33437047249784235,
        0.47304983123501076,
        -0.056423443694165853,
        0.413145005203284,
        0.2282478447867935,
        0.10625990439560828,
        -0.23801596865511299,
        0.026592322904883225,
        -0.36138025836301424,
        -0.36190200676120665,
        0.21574976623565978,
        -0.13891023166655114,
        0.25137631148663164,
        -0.2595063960862387,
        0.2181581423147705,
        0.2184769263967773,
        -0.19450411894748942,
        -0.3936145661203586,
        -0.1029921448128659,
        -0.007638499672663834,
        -0.40002578530221566,
        -0.31323873963221416,
        -0.44465694718451954,
        0.09751357155504392,
        0.3888761233719161,
        -0.2834422090403782,
        -0.46528656412318026,
        0.20392359441918284,
        0.3149105587896851,
        0.4641215867338897,
        0.11317895682370194,
        -0.15755683434810364,
        0.3378686180306556,
        -0.38193289478687775,
        0.19263693818962668,
        -0.4047691507483635,
        -0.1002942529826012,
        -0.0049771185978211285,
        -0.12210572696765898,
        -0.3314024211955203,
        -0.2682826873977725,
        0.32014999749989437,
        -0.03742419520751017,
        0.07993274472350986,
        -0.2880929823838405,
        0.21493505878653318,
        -0.16988274085273636,
        0.0936185874860408,
        0.4094870627958156,
        0.4943934088859884,
        -0.4537820516868545,
        0.297442711928691,
        0.3575878253608825,
        -0.18042556279279442,
        -0.11685237401788229,
        0.08025375967633308,
        0.41884023097071255,
        -0.10007140666195813,
        0.3800301687734118,
        0.25856052820417563,
        -0.3477269202937745,
        0.41367992036384926,
        -0.4848189474100487,
        -0.3548217499531252,
        0.16481121288668743,
        -0.44288031336110756,
        -0.12051011432581649,
        -0.37002114147306653,
        -0.03711072614674382,
        0.33998034375460107,
        0.4060843513491861,
        -0.46453035967811496,
        -0.43914824333113545,
        0.3406240353653226,
        -0.4571852167443885,
        -0.22640973492865502,
        -0.3825632823071635,
        -0.4089622930429062,
        -0.47237711027516394,
        0.1375130126648525,
        0.24461426793985663,
        0.18677137655867626,
        0.3456227719182262,
        0.16301618849869337,
        -0.11029807232465616,
        0.1310630237160113,
        0.46959480836870315,
        0.14160333302325256,
        -0.25690826590786986,
        -0.4398159042900428,
        0.4351659997400953,
        0.09049549829420844,
        -0.1503852573895912,
        0.10535274966103092,
        0.06025759606347347,
        0.022171772786545696,
        -0.4391953579705433,
        -0.1467724476238652,
        -0.08734997706044911,
        -0.300631659391162,
        0.38010523122850703,
        -0.0758802226191706,
        0.1623856654024448,
        0.21354644944589585,
        0.24328306027250535,
        0.22111529091269855,
        0.25220850163909947,
        -0.24841930584923577,
        0.47640367669289674,
        -0.34899024621613994,
        0.41864739509930093,
        0.3545687752075629,
        0.3521642911799676,
        -0.4471887451624661,
        -0.4087819165561005,
        0.3130558022323219,
        -0.030833173534812075,
        -0.12974680886207435,
        0.4846874722293574,
        -0.45988206471036,
        0.031465053805604826,
        -0.05665022384929286,
        -0.37179687697132235,
        -0.1048117372140126,
        0.20764740481050192,
        0.38231560920240815,
        -0.4753802885366566,
        0.02450955860308912,
        -0.4096234049647416,
        0.30039345715503485,
        -0.41421472056329545,
        -0.46580667898286165,
        -0.11576379792271141,
        0.23260617450630006,
        -0.18679330695255247,
        -0.3699951003469525,
        0.29457222208517175,
        0.306919381895185,
        0.3558597987725721,
        -0.19625552673594315,
        -0.07516963898102647,
        -0.25461000574574655,
        0.0571774930165061,
        -0.16989283321025217,
        -0.1613366640409818,
        0.28362141840973654,
        0.45629616004022233,
        0.08414031923675847,
        -0.3953120698800424,
        0.15257493268461053,
        -0.05138828215191982,
        0.48803055702631304,
        0.21938149514798677,
        0.33478610650720897,
        0.20128626018821205,
        0.035619005786391766,
        0.3968183918281254,
        0.331617064708009,
        -0.20867411238567102,
        -0.3429681047799126,
        -0.12964813121230512,
        0.02107767257258575,
        -0.40261991016937126,
        -0.15462071354413964,
        0.07490566421197997,
        -0.4564253814481487,
        0.3149486765188295,
        0.151117045683278,
        -0.1863498284102364,
        -0.20167901874483152,
        -0.14738385921217956,
        -0.174711303794857,
        0.2485137769587532,
        0.0010568574712526146,
        0.026128397299825967,
        -0.3512435010290834,
        0.4144180024177262,
        -0.17442707132766644,
        -0.17243554761178803,
        -0.43115386030216696,
        0.47941158175179566,
        -0.020302158190741104,
        0.4128847372842237,
        0.42761724249748345,
        0.4697521431783417,
        0.3156292877315128,
        0.4254432251913127,
        0.4222893236500579,
        0.30136767816618526,
        -0.36541878395731653,
        0.02371172228584073,
        0.0756040130041492,
        0.49249752798615787,
        0.28394854996625274,
        0.2029162166549554,
        0.24664903684443873,
        -0.13842223591652314,
        0.44231355784021675,
        0.14350088961522878,
        -0.0974253914699833,
        -0.03542842270239144,
        0.47975492731073255,
        0.03212839743153817,
        -0.3322024641255117,
        -0.35164500586595016,
        0.18724219665774766,
        0.06277553091501853,
        0.4068062611875043,
        -0.31539965595062924,
        -0.08889118627312997,
        0.22796021863597837,
        -0.44989496609771207,
        -0.4007775934145148,
        0.045707901428020614,
        -0.2342707834045752,
        -0.39306240376573254,
        -0.2383024315031378,
        0.13214108773482092,
        0.02637743682438276,
        -0.4215032394591691,
        -0.42718855444928827,
        0.3506269918187016,
        0.14323896049159468,
        -0.326632741753189,
        0.36183406734533474,
        -0.4781506166580384,
        -0.1318952076136083,
        0.3476297370096515,
        0.21027841275522252,
        -0.21624759420801065,
        0.3912814945011249,
        0.09807800124299026,
        0.36549331917509276,
        0.39279337402598347,
        -0.07455592265580846,
        0.1756003377375025,
        0.044476314728130295,
        0.44473523787279023,
        0.29816074283538896,
        0.22581850046435803,
        0.3140323746264132,
        0.49815995228516063,
        -0.24343881452597393,
        -0.2986363693454873,
        0.24678281345954767,
        0.2703325106256943,
        0.014283797711669655,
        -0.012924186316036312,
        -0.09625692951795017,
        0.38269693039408603,
        0.296231877641984,
        0.08459759820697543,
        -0.4598809156430791,
        0.35114159426005054,
        -0.04154632235764533,
        -0.3102394717892858,
        -0.20064572471383568,
        0.19133447589038677,
        -0.4944929216744569,
        -0.37995535267990166,
        -0.19734636312356635,
        0.3871913551832168,
        0.24686043944621094,
        0.4707917256397661,
        0.04302873943036667,
        0.07196822757863752,
        0.05137680681427459,
        0.02562721380171673,
        0.04204057112057591,
        0.3185675511269973,
        0.45336873470145966,
        -0.09169923065029573,
        0.1299652426023742,
        -0.19224059244601233,
        -0.19808961353492982,
        0.006317350597555227,
        0.08626765862350783,
        0.049994466994025766,
        0.4765797032009982,
        -0.33702876230520185,
        0.1366644129872755,
        0.4945310087813287,
        0.23613528655132898,
        0.06590851423330446,
        -0.13163684740015824,
        -0.09786111651692564,
        0.43652309223258523,
        0.3953304495737955,
        0.16967628909893862,
        0.39874789186177284,
        0.42516364969336484,
        0.3463435694934305,
        -0.11658380725327733,
        -0.035635357559043124,
        0.29590750322893145,
        -0.12736697021248444,
        0.2493638087232053,
        -0.018579618866479186,
        -0.16345869460360096,
        -0.043851712319776026,
        -0.3834905439337781,
        -0.14550324421603056,
        -0.08480556943818696,
        -0.48183642331507326,
        -0.32792602617999445,
        -0.23976695263560166,
        0.35788402801095465,
        0.08957713683066537,
        -0.21285509355642285,
        0.4977266968258558,
        -0.242079399980199,
        0.01378833716569039,
        0.2395197854992286,
        0.19132054055985126,
        -0.0664973159439608,
        0.27699769224204573,
        -0.01420589375895065,
        0.2154650675477161,
        -0.008623458822470953,
        0.47149468512762027,
        0.21617994029166243,
        -0.40862276357083627,
        -0.37052987362340384,
        0.4665147971332322,
        -0.2707716246681998,
        -0.47386395109247414,
        -0.24677625182484975,
        -0.02021294255030326,
        0.4521685622554448,
        -0.1008700978036201,
        0.2235055877822264,
        0.3343625217899382,
        -0.41083798238868996,
        0.11189195480060776,
        0.49578435756916117,
        0.04959596856144943,
        0.03448617772668017,
        -0.15329746121887278,
        0.44610539564184715,
        0.46959923897712774,
        -0.3968301509728961,
        0.052833860211579764,
        -0.08037077013470684,
        0.17164616093874663,
        -0.38135336343105375,
        -0.23466570910398354,
        -0.22124662116883909,
        -0.020287060699458848,
        0.2932828344714875,
        0.3578475121235484,
        0.2864236400590823,
        0.1768068346699463,
        -0.41280724207761044,
        -0.11028292682924634,
        0.16870162224242768,
        -0.2057522186490941,
        0.007818397119353504,
        0.40507836187692503,
        -0.38384296293473796,
        0.3538766539036542,
        -0.3941703278635925,
        -0.11363556523892304,
        0.4053894035696106,
        -0.2987999382084353,
        0.020742626917433227,
        -0.08339596731083809,
        0.38794728320203153,
        0.49206469607886383,
        -0.21140743889711078,
        -0.007523457455170801,
        0.39500515021534643,
        0.04479567641794824,
        -0.2853750602251913,
        0.25966231244472215,
        -0.16291070087963344,
        -0.014025627800379525,
        -0.4914380926059474,
        0.48896704412462166,
        0.15728236248253724,
        0.4258128470566863,
        0.46868528208733107,
        -0.23246631729275902,
        0.04053597618231075,
        -0.05974876657229522,
        0.2598552175178571,
        0.3423856653329628,
        -0.27143983909477454,
        -0.22543533690022188,
        0.20626154725513857,
        -0.08835694828378537,
        -0.3697984646535206,
        -0.3046894117614787,
        0.06084931366165003,
        0.0984944470487219,
        0.4600715716066204,
        0.03277995314036197,
        0.10898076377336408,
        -0.3511452455381745,
        -0.08619808204351209,
        -0.22020870834479522,
        0.19542283792642534,
        -0.23294274887944422,
        -0.2855996899399299,
        -0.13231560141588228,
        -0.029450943755637726,
        -0.1616050289857478,
        0.10573215603021358,
        -0.3187963311433277,
        0.3799102945666537,
        0.19417136498625298,
        0.03476321808568794,
        -0.4418377242688355,
        -0.1739933600389847,
        0.1901073689391266,
        0.14506427765941754,
        0.3119541778331114,
        0.3915085435895681,
        -0.18463363034615177,
        -0.006269317266293206,
        -0.169958389413304,
        -0.3720777341182925,
        -0.3598829083267693,
        -0.2435305548829747,
        -0.41197123650265755,
        0.03882553301026703,
        0.20292244143807148,
        0.06307259330215798,
        0.1847667479227295,
        -0.27375199226096014,
        -0.30059565228956364,
        0.06757484868097707,
        0.3842855938364801,
        -0.07773545140295512,
        -0.49576335568883145,
        -0.4799483953287903,
        -0.19469540698671295,
        0.11537423148949788,
        -0.41543456358424835,
        -0.2754896560298461,
        0.18069055397549605,
        0.48499194429235726,
        -0.15892719276939138,
        0.10113898455176729,
        0.018429833496187098,
        -0.4768752223129842,
        -0.1701655883563814,
        -0.3605588219061451,
        -0.24917832092486591,
        0.2699809830135035,
        0.1812025798410788,
        -0.4589770708456511,
        -0.4226248779012256,
        0.22492922096534373,
        -0.39679030105481927,
        -0.1829800140190705,
        -0.23066237174252446,
        -0.4502334865796802,
        -0.468830026102679,
        -0.360965215222822,
        -0.1006727712448151,
        0.4337057301405899,
        0.13837812610940814,
        -0.25793900270863424,
        0.1796441847743212,
        -0.22636681044129403,
        0.015238016010762023,
        -0.1781723129827426,
        0.4486709096447534,
        -0.1476374795784633,
        0.30356280349929643,
        0.14119296315433605,
        0.34332557861432367,
        0.10616037195350747,
        0.3703849857380972,
        -0.09483701667880262,
        0.17900269163134697,
        0.12063716147373837,
        0.0277337094812512,
        0.06443997784496158,
        0.0357619817100272,
        -0.10622928067225812,
        0.39831938758039864,
        0.1327294059296804,
        0.049123072125940914,
        -0.44606094360283455,
        0.008528114183757207,
        -0.3248532769040653,
        -0.2849767811802637,
        -0.06538773123552,
        0.0459568203984656,
        -0.24958786711966297,
        -0.22906561982010576,
        0.03014633999574834,
        -0.026765926733067325,
        -0.09671251692717697,
        -0.39624647986206596,
        -0.12652234681639984,
        0.15442126227522135,
        0.044198940419721944,
        0.04475271370624767,
        0.34381811175093624,
        0.2231630497228716,
        0.18458924130218324,
        -0.4695863379609163,
        -0.19187204207862185,
        0.1824123198703762,
        -0.3442272240344667,
        0.41347304418149067,
        -0.35807346048490374,
        0.37912144382926616,
        -0.2837316432291904,
        0.34158975482728027,
        0.34822968220249895,
        -0.1645352887727981,
        0.38859237203257657,
        -0.340232207211818,
        0.3491095140212457,
        -0.11826545124403998,
        -0.06028239871829699,
        -0.3821402193851403,
        0.10100526470797921,
        -0.23024417985012813,
        0.1668793014210087,
        0.2993879440342788,
        0.10368402267330412,
        -0.49181519048452926,
        0.4523352385289845,
        0.41968116771598585,
        0.14293532172275614,
        -0.12049365232148324,
        0.0619137655369324,
        0.38281206861990014,
        -0.04047119594837578,
        0.27921824479068735,
        0.09855890035069959,
        -0.07772077414346656,
        0.4335265559713849,
        -0.09156909282405823,
        0.10577912227800268,
        -0.4467257104874651,
        -0.02923613206193043,
        -0.4625857647800221,
        0.2041328675848595,
        -0.499409758953842,
        -0.45793443298514835,
        -0.38887438485479864,
        -0.3604251032289567,
        0.008078364753744793,
        -0.14371160007246453,
        -0.22909668994749854,
        0.4836236057298181,
        0.40899991965743965,
        0.15486233946992467,
        0.3020869677805449,
        0.319708367418291,
        -0.2548265611563991,
        0.3082860605552211,
        -0.2601883776073126,
        0.062356561064485394,
        -0.14228299355509255,
        -0.341340801742649,
        0.2768544334216305,
        0.416341667652535,
        -0.18630144430402984,
        0.3797625357454809,
        -0.15374390592060383,
        0.15755536128411762,
        0.4957895941910351,
        0.27207073506402424,
        -0.44433278875833493,
        -0.06512733239728752,
        -0.12369674176913337,
        -0.20606820468673892,
        0.31613555059757803,
        -0.05897980333721764,
        0.19924029885277084,
        0.134931136739595,
        0.018995785298745904,
        -0.443968777794412,
        0.17303524995968889,
        0.39138308549704703,
        -0.3278005678725696,
        0.14274441917169645,
        -0.012560651492946273,
        -0.15901541890595028,
        0.21042671890170983,
        0.4751989661364331,
        -0.4783353173713687,
        0.39730575836609405,
        -0.11676135933695364,
        0.33384835685114733,
        -0.32528861316111257,
        0.21659159085008806,
        -0.40030351096128014,
        -0.1643898339951433,
        0.46990867949313286,
        0.1566155049590191,
        0.28452376035450033,
        -0.038694569893285125,
        -0.028833028900996927,
        -0.007374855492796928,
        0.2731552918492094,
        0.22324980748272705,
        -0.3062318978310288,
        -0.05939560831444002,
        0.04202392041988856,
        0.07142864531485504,
        0.42677094240826885,
        0.33974717650722575,
        -0.3501187636558539,
        -0.1238792805774731,
        -0.3910274967625056,
        -0.4737761791616558,
        -0.4254140411216788,
        -0.3170344646364661,
        0.26607717854542623,
        0.16722142325371492,
        0.29787097733425094,
        -0.21149658472867028,
        -0.34448898468696587,
        0.47210026923271575,
        0.3260249130855136,
        0.44678206931492925,
        -0.48121292543089933,
        -0.10345251999146221,
        0.13379821706326656,
        0.23607458019955507,
        0.4126506166783467,
        0.03773179423442374,
        -0.10920760041735866,
        -0.49467598241475574,
        0.30386324412729115,
        0.4821579264325665,
        0.4072464418329662,
        0.16226850583443575,
        -0.15752453608510408,
        -0.26084974351482604,
        0.27501968694000345,
        0.43542936859918047,
        0.4603260916542147,
        -0.3243926214003321,
        0.08535274879316379,
        0.013118268675081257,
        -0.07257482233894708,
        0.29440069228750176,
        0.4357823842440698,
        0.22462482147097051,
        0.20030586051962818,
        0.19061451861163403,
        0.1535567045078392,
        0.03675398288086651,
        -0.2520842969554432,
        0.2794770186017971,
        -0.38090656275292767,
        0.14388816839715435,
        -0.11301268570359546,
        0.05996254156970171,
        0.14143634449692988,
        -0.02107647027835613,
        0.47809411226568577,
        -0.260806949605378,
        -0.4878316669102679,
        0.4552579884177682,
        -0.18799227873661117,
        -0.22192742136912502,
        -0.08444095278756236,
        0.09496673295796942,
        0.48611456574250045,
        0.20752468576076288,
        -0.18167978696078557,
        0.03468827632443794,
        -0.05131450301347884,
        0.0015871137607440522,
        -0.0823918018205474,
        -0.3323821373367166,
        -0.10451593474637699,
        -0.11091090136486159,
        -0.2992805801675168,
        0.31691867320560463,
        -0.1400090759382816,
        -0.3485136087279569,
        0.0668743199071905,
        0.3448434112605253,
        0.280561072535501,
        0.1220402649317941,
        0.23103800684603748,
        -0.1638854225846933,
        -0.3572885449344779,
        -0.24499033948574844,
        -0.15064635586543096,
        -0.22086622889735863,
        -0.0322385950873183,
        -0.35096766834068593,
        -0.369738214024804,
        -0.24727613310578922,
        -0.30349630809977857,
        0.3017006261598003,
        0.03755682422538498,
        -0.30158877713224275,
        -0.07078289452113318,
        0.37191556572786344,
        0.07761214777225933,
        0.05391425237434977,
        -0.10868192679041866,
        -0.304162561278271,
        0.12540508758086755,
        -0.4228505927839822,
        0.28618994852376856,
        -0.44247514731987825,
        0.2463473111792467,
        -0.11737085567970507,
        0.1824114332903526,
        0.09100540427047066,
        -0.3708243245431163,
        0.038502101200443506,
        -0.42583245093029776,
        -0.2587816875433957,
        -0.11833108857700936,
        -0.21432883141628112,
        0.1617593520798355,
        0.48683468548339714,
        -0.14313848503635684,
        0.3385970978312445,
        -0.2749006576996951,
        0.20933088767381047,
        -0.1522796340873661,
        0.03536332616037885,
        -0.41141663853612054,
        0.3273532189349466,
        -0.2911648623244466,
        -0.03654725088252231,
        -0.2097042068798789,
        0.3102029533838505,
        0.09259472864150353,
        0.1151849357234862,
        0.2547485637932494,
        -0.24510343657165823,
        -0.4417518298919165,
        0.32855537370781007,
        -0.18439485013558077,
        0.3122711266008682,
        0.4566394159445416,
        0.12919124828189155,
        -0.39670801078887497,
        0.35398713078567756,
        0.1334281234927437,
        -0.2541007940123323,
        -0.2921279705745403,
        0.007721315300630693,
        -0.3784341520656562,
        0.40602008242684107,
        0.20786219248305893,
        0.31928218116774776,
        -0.11617947622497904,
        0.42319130537990735,
        -0.36604523052354976,
        0.21625005139670161,
        -0.24539597537317914,
        -0.49636837305344195,
        -0.37910853468911,
        -0.298455953701237,
        0.2633452680909094,
        -0.12195004028789003,
        -0.017969358377184164,
        0.11358183049163317,
        -0.23233962775984396,
        0.13843358433078679,
        0.17157193027882045,
        0.42136915441131917,
        0.002866821237782924,
        0.35528612442644747,
        0.46775172109670893,
        0.2688954149308205,
        -0.07880816311727346,
        -0.22802020241338072,
        -0.4022681216203777,
        0.3310268136396308,
        -0.37039998034646926,
        0.05951289844417129,
        -0.04606928114750897,
        -0.45515358084100765,
        -0.2856622308944119,
        0.3228965828576935,
        0.03865961598117451,
        0.4243946249503633,
        0.4079739842078218,
        -0.40597244294648227,
        0.17811681141030444,
        -0.4573418211459863,
        -0.0773334292042005,
        -0.05822505661255806,
        0.45687273273781703,
        0.0953175015896558,
        -0.30999939257392706,
        0.009747306889322793,
        0.02182888508250147,
        -0.3029254136031976,
        -0.14026864872399825,
        0.3774946375642467,
        0.4814709257866746,
        0.27686631668018236,
        -0.4354984958392596,
        0.40587667414395867,
        -0.041540562777222845,
        0.3340560392335773,
        -0.3232201271408983,
        -0.3523153524562991,
        0.4066622848699335,
        -0.21447655954095635,
        -0.4569445730498243,
        0.0010482003157989972,
        0.49056845803534155,
        0.3354980615186305,
        -0.10370036146055939,
        0.49307341426569395,
        0.2966701948025767,
        0.34206586757630886,
        0.1461069531835517,
        -0.1056186685866295,
        0.4057097386732066,
        -0.029370777599338926,
        0.4346421662649822,
        0.052191070822261154,
        0.4098574658614854,
        -0.022843599189626862,
        -0.07317921292330376,
        0.0886823143731551,
        -0.1826895341633239,
        -0.3506023839404592,
        0.08933244314600852,
        0.3509629219538113,
        -0.22222375075618306,
        0.3650214121278488,
        0.2871289610182677,
        0.27567585826651275,
        -0.08486981398600724,
        0.4987565168726059,
        0.290878236469853,
        0.07564879642227917,
        -0.38649003180163066,
        0.07381549127064146,
        -0.48561879917291895,
        0.40220868834886814,
        -0.16330274244484622,
        -0.13165513612116775,
        0.05088318164990491,
        0.13746402688442005,
        0.08272706772508309,
        -0.015074782846683288,
        0.1343552401942114,
        0.34714226081660526,
        -0.053790604066231484,
        7.937788296075166e-05,
        0.3103469203716892,
        -0.49659393040393074,
        -0.3392895019810116,
        -0.17497006534895876,
        -0.28606261204076133,
        0.3960099487021844,
        -0.35178377785098003,
        -0.392113235563215,
        -0.18279903481308724,
        0.008640754378281379,
        0.3214808580281753,
        0.49565108374816313,
        0.3518696819228958,
        0.1088375998175497,
        -0.4623980990726939,
        -0.43653550917246,
        0.13073607717937452,
        0.31988230936548134,
        -0.23448759500237015,
        0.4692190095562402,
        0.050387302665828804,
        0.07377119947844302,
        0.11862191620082041,
        -0.4250858000769978,
        -0.32961186092794303,
        0.4361922960907023,
        -0.23270478536339068,
        -0.41670695598217866,
        -0.21757106072578403,
        0.22614618123404484,
        -0.23719142947456595,
        -0.2894183315424187,
        -0.22287059782665597,
        -0.01957838202181006,
        0.23754909271112357,
        -0.19867703476995502,
        0.37350962170060087,
        0.4758824199729277,
        0.32201636987675963,
        -0.42487456239228905,
        -0.184541431518902,
        0.4257857896092999,
        0.3593843990279285,
        -0.36674670848807933,
        -0.05777565528354711,
        -0.1360575795243959,
        0.24746966389781533,
        -0.4712903574907572,
        -0.18452303545552518,
        0.2497795906946959,
        0.38687017229944987,
        -0.45937365511895334,
        0.08835343049513122,
        0.16360854826442828,
        0.3729168662865777,
        -0.07542057198009833,
        0.47304968463767216,
        -0.30257421558470265,
        -0.38523738393603435,
        -0.36995449681743786,
        0.08672377844334,
        -0.37755950002711347,
        -0.2334031875555711,
        -0.3036983476474222,
        -0.4447063329718527,
        0.4623832662114691,
        -0.16507462466464173,
        0.4640157641060344,
        0.22323401536554188,
        -0.28023076112855916,
        0.4325466799393285,
        -0.4906480013284841,
        0.4816548190172133,
        -0.46773563202925394,
        -0.2466866530575964,
        0.05195719778439145,
        -0.490822238995958,
        0.26471181874997207,
        -0.41534580644738994,
        0.31708634773876954,
        -0.4648956436973021,
        0.028157712521046596,
        -0.2905630287305281,
        -0.21123593119516626,
        -0.009515587196547215,
        -0.12862202283070134,
        -0.10801994096898693,
        0.1534304773321632,
        -0.30475861136376836,
        -0.31849876651520814,
        0.18439400660289973,
        -0.20303714308575183,
        0.43295518741951,
        -0.07375990887237205,
        -0.025978882882912946,
        -0.47682975614562584,
        -0.4793444728103634,
        -0.395232165909125,
        0.12562809570106748,
        0.16454340979282733,
        0.452197558029905,
        -0.06753056625042098,
        0.20767056630698655,
        -0.15639786169759629,
        -0.42593806500042086,
        -0.07981455180575303,
        0.20162433023915904,
        0.30422382425022454,
        0.4519835922269637,
        0.3321729347701794,
        0.06361438826049426,
        0.0503659839916063,
        0.00109518956484711,
        -0.022393482923750985,
        0.18049154980765947,
        0.07570629496289327,
        0.3571618256569391,
        -0.049925844343581605,
        -0.028825088103293983,
        0.3320793007930175,
        0.17563626780659636,
        0.024450997274529485,
        0.06344650510656447,
        0.3057040452690749,
        0.10738200351379856,
        -0.2408495973394419,
        -0.1897567882041069,
        0.10460496513078499,
        -0.4541519076979499,
        -0.042423639762870335,
        0.39190686013949805,
        -0.2678561992348377,
        -0.05584395521024155,
        0.19950458762049172,
        0.4255037779777603,
        0.19627322247996037,
        0.12583037573721367,
        -0.11610503597311372,
        -0.06264071871153853,
        0.14194693499224031,
        -0.14368011153094018,
        0.28487128701443176,
        -0.49180938112881545,
        0.2514176185511582,
        0.242046758935078,
        -0.19355994180785474,
        -0.48503921684266704,
        -0.1618412263034028,
        0.08918581812055026,
        0.2869470702412067,
        0.3703662160764746,
        -0.2914368382350586,
        -0.418263164694301,
        -0.38011387980370326,
        0.48904830083993744,
        0.14543668230079354,
        -0.37163515552094606,
        0.1907652563921265,
        0.4594778523568883,
        0.10743706182226631,
        -0.26742790619129975,
        0.46238952609934714,
        0.20055337764053704,
        -0.3170157465671889,
        0.26621793029282925,
        0.00417464040100779,
        0.07404298812723242,
        -0.13421276731405263,
        -0.20624847428488957,
        -0.07956342453405651,
        0.026402227379709986,
        -0.03855698696760257,
        0.36626564605477463,
        -0.42579446032436163,
        -0.3010106875918124,
        0.43750522458260477,
        0.10785806955563537,
        0.11752978891699273,
        0.12974994051869715,
        -0.25650486563779273,
        -0.10532077864288936,
        -0.28985158635769837,
        -0.34801676332885956,
        0.48951226695816663,
        0.24381410866067,
        0.37913725048376823,
        -0.49853676771620326,
        0.2044709823089177,
        -0.19273793366348724,
        -0.0020892756366998055,
        0.17525142540325533,
        -0.46881311392733205,
        -0.12924068095540708,
        0.05389547602753031,
        0.37437821776563707,
        0.01320692516635924,
        -0.18241675988543327,
        0.10376073503134653,
        0.0836119252877,
        -0.2077112361013823,
        0.0480517049332726,
        -0.22387712128807868,
        -0.4887070146054926,
        -0.18927452152778168,
        -0.4135691550470635,
        -0.00810874912913151,
        0.0011489035231448952,
        0.37022193227431766,
        0.24790663006407354,
        0.24937797317998245,
        0.4896444225826386,
        -0.23532203259487927,
        -0.12726441186353854,
        -0.26944287080906115,
        -0.39751318397432767,
        0.015229132132049461,
        0.011328400396286353,
        -0.3702750705774336,
        0.4225410152101894,
        0.4785034275373752,
        -0.43169416324611276,
        -0.49682899808558434,
        -0.4382027058084218,
        0.23173042175036174,
        0.3525213973301591,
        -0.4338334049655983,
        -0.4910377112412786,
        0.037946643971874305,
        -0.1672886179003925,
        -0.4812620981669553,
        -0.49120075584181366,
        -0.28864062973142723,
        -0.29989021073086086,
        -0.20463686003006543,
        0.050665754985186995,
        -0.24862030231363197,
        -0.26648344708476124,
        -0.2892511457841648,
        0.3870010231418268,
        -0.2614086645082079,
        0.05533016249947842,
        -0.04736659649501085,
        -0.1685950433709753,
        -0.0932398355025984,
        -0.4840087550688802,
        -0.3149521536706881,
        0.14013906638083518,
        0.26148735124507005,
        -0.2816301791005359,
        -0.32347039651732523,
        0.4056925908180846,
        -0.40221977935137965,
        0.29486043985083,
        0.3780519047861981,
        -0.3537011737911483,
        0.3329743924973544,
        -0.34994330830173104,
        -0.4568930361597896,
        -0.21376659004550802,
        -0.1556767369932589,
        0.08954019911040678,
        -0.057478240130623304,
        0.2934570478484626,
        0.1647668867194073,
        -0.38080602096431515,
        -0.29763220210340013,
        0.24616292661698702,
        -0.384064859990601,
        0.45263536860255627,
        0.31155992107428243,
        -0.28016341523530985,
        -0.21388858769797914,
        -0.2478750904857523,
        -0.07715594864531283,
        -0.25136035887456865,
        -0.46773699131656443,
        -0.24823281344053683,
        -0.3052012523579196,
        -0.1500758129564097,
        -0.045735241737611454,
        0.37431221397518255,
        0.1595559706334061,
        0.11548222886360549,
        0.36452901869199317,
        -0.11346655272410389,
        -0.07390610179502732,
        -0.25550489997853754,
        0.3302020690541426,
        0.37736069667119576,
        0.4108289419011829,
        0.10492650158055672,
        -0.3861617577097036,
        -0.4277313294044389,
        0.29753450629556466,
        0.3854660412439618,
        0.03226888406136241,
        0.4207674262789277,
        0.4307728881764269,
        0.25475107752972614,
        -0.1294554217960182,
        -0.04365806010091133,
        -0.14811592313728694,
        -0.10395014317257434,
        -0.028684634631592654,
        -0.4828896271415901,
        -0.3726553521869522,
        -0.33198433889290113,
        0.0668151611593164,
        0.3716093640664898,
        0.21139581297961563,
        -0.3505048441370505,
        -0.042316066884289016,
        0.12730419749198285,
        -0.3648089605486783,
        -0.42031114688027527,
        0.11203832368465538,
        -0.26457162681257285,
        0.14505740489969177,
        -0.3284568914973556,
        0.3559051638324977,
        -0.1902596795762872,
        -0.07164119814321934,
        0.049966255972249796,
        0.38634796030580687,
        0.4163774259941546,
        0.3447924267933279,
        0.18451596286775684,
        -0.43081221219072174,
        -0.3132105582983702,
        0.034606501720645166,
        0.4851275238906827,
        0.22614651139839081,
        -0.308336379755496,
        -0.14400278974044511,
        0.4624648493981599,
        0.00774599562878131,
        0.3703182217128731,
        0.3579951066621663,
        0.28176618742646653,
        0.12704160668143805,
        0.1658434672246023,
        -0.15792291124022895,
        -0.37958481770281416,
        0.44856082182712864,
        -0.46736968325779293,
        -0.2291150399651224,
        0.11389596545400671,
        0.46493172495327506,
        -0.2898321147085804,
        -0.25303048761381064,
        0.3479079477817154,
        -0.1729339468230685,
        -0.09704469707353525,
        -0.1402598189380886,
        -0.4505465832967086,
        0.44182192750673344,
        0.19773037410121963,
        -0.4931740969767052,
        -0.40285561996829455,
        -0.36454585773677095,
        -0.13111324976266803,
        0.3903220241258988,
        -0.3591403502049192,
        -0.27192348930689114,
        -0.18855635394599501,
        0.010694403270353314,
        0.4010896823526533,
        0.039457228781784925,
        0.40355448323024146,
        0.04192703060259462,
        -0.06787587059500699,
        0.37146358519313905,
        0.08083525681309423,
        -0.025023011990780053,
        0.012451141060647153,
        -0.14437002543011956,
        -0.06689864542735369,
        -0.425841411375082,
        -0.2947836352218741,
        0.26299652563260445,
        -0.3664156066439308,
        -0.29175151123702925,
        -0.3364063986709953,
        -0.13711821150818848,
        -0.4507118330646376,
        -0.13967056510999654,
        0.1096944305101264,
        0.17797444534368223,
        0.3673468471423553,
        -0.4129223194625179,
        0.14382285368433312,
        -0.3036858767150695,
        -0.1575749057158622,
        0.07512935021075706,
        0.3379532608059902,
        0.17060860027977565,
        0.4852989087215962,
        -0.4820521010639425,
        -0.18390975229701056,
        -0.01963710373566896,
        -0.46379441096443164,
        -0.4476274039352708,
        -0.13322771713169568,
        0.0591584693603463,
        -0.3644849770650903,
        -0.4316941089095636,
        -0.1811635519245205,
        0.24152224461211258,
        0.06717297933802158,
        0.49680432909400885,
        0.10510421035997963,
        0.39039575147410954,
        0.0728890529990085,
        -0.019079936012655896,
        -0.08445467910861393,
        -0.4285092557812368,
        -0.4370688498673474,
        0.15840688083919552,
        0.3591728160005081,
        -0.4809517786670231,
        -0.3197733096147489,
        -0.17253280262803838,
        -0.18693156344817463,
        0.334196312855656,
        -0.24760043718387204,
        -0.19378645008709472,
        -0.012415853023827084,
        0.45080724367487757,
        -0.20548504470023954,
        0.13370437391685952,
        -0.4514006144120867,
        -0.06855988926723067,
        0.4272130847943607,
        -0.28259509594504884,
        -0.143538387357102,
        0.15414475440233033,
        0.06554144989066635,
        0.0760315454103393,
        0.10855271112847964,
        0.17538653442542118,
        -0.1773360807983848,
        -0.14828382361977344,
        -0.10299381347849668,
        0.022337032440781668,
        0.0670016683368806,
        0.37396539145907537,
        -0.1041638554461054,
        -0.05075231827758797,
        0.33265444249763076,
        0.47107493652280075,
        -0.25710443379167636,
        0.23043018311051833,
        -0.2523881265596195,
        0.24112031661362443,
        -0.46147264153246215,
        0.007128465709644649,
        0.06997869524551814,
        0.1995913857762528,
        0.41703056186737697,
        0.2950952810826767,
        0.06308045020871489,
        -0.002825242298300945,
        -0.4867737488001045,
        0.05266567114339704,
        0.06222443901537378,
        0.24210184403162371,
        -0.33460194920463326,
        0.08866150210152035,
        -0.4484174039905984,
        0.22589967674244982,
        0.32160841191489453,
        -0.06222384246070578,
        0.18768598619758248,
        0.1623105521995788,
        -0.19640144816545302,
        -0.4117548805336525,
        0.2579976906751176,
        -0.1429232791421432,
        -0.33862367917109104,
        -0.05779331229295426,
        0.33294109288652773,
        0.4541864645784335,
        0.0673387299269459,
        0.469856387437914,
        -0.3265751781406714,
        -0.009582568121782487,
        -0.49162282365597265,
        -0.2660334789422487,
        0.37656033493159347,
        -0.44060633000651284,
        0.15443020435810995,
        0.009541282120115402,
        0.48757700175285823,
        0.4935963039541207,
        -0.37665889922668094,
        -0.23792644487080772,
        0.49141867584964727,
        -0.17005604407460284,
        -0.319521398801759,
        0.4117727483923297,
        0.11722189583079068,
        -0.191842196626566,
        0.05438661356715491,
        -0.07259294041938924,
        -0.042015079331031324,
        0.05212408535998114,
        -0.3302218875294458,
        0.11560349544348802,
        0.45516873381152345,
        0.09203980000808532,
        0.2874996677542453,
        -0.2174641588816194,
        -0.34540423987641444,
        -0.493561500210842,
        0.48131887868394074,
        -0.3809378264439047,
        -0.11998515044737457,
        0.15472324574589602,
        0.2345995543816013,
        0.11813259040898938,
        -0.060437325765140715,
        0.31493377337765394,
        -0.05764021453433488,
        0.3353037104488943,
        -0.44597516145429095,
        0.2220104493745927,
        -0.40270185069558717,
        -0.11243943767764797,
        -0.05661252590146937,
        -0.3180129045618204,
        -0.05105162768092586,
        0.3528943925616802,
        -0.4635921523932057,
        -0.30608195851106246,
        0.47561550580280865,
        -0.05003362530254529,
        -0.11026426933161748,
        0.4126469444394134,
        0.27587304827680137,
        -0.3264767986394682,
        0.09788606519464282,
        -0.3195951590130556,
        0.2757205369141853,
        0.05643275425253813,
        0.29858979338210945,
        -0.43507251906835953,
        0.4280062358832749,
        -0.2701889392311939,
        0.3497813814803977,
        -0.05840250599908281,
        0.38885041882162286,
        -0.3983581558739677,
        -0.4462067578199248,
        -0.03171171040685017,
        0.43046830154493143,
        -0.03468607119265299,
        0.007471845269419131,
        -0.3358080133702426,
        0.04103249211450721,
        -0.07279264268695029,
        0.3879140065131067,
        0.24095123899053328,
        -0.0222373567109867,
        -0.3510450995005201,
        -0.35404513515569747,
        0.47124827010344694,
        0.11101595456523439,
        -0.2750274703869364,
        0.3109772055112656,
        -0.28387836451068027,
        -0.04600578062536598,
        0.3771760922354259,
        -0.39659729079036354,
        -0.3970483658820104,
        -0.4474170695721791,
        -0.3482964859205576,
        -0.12546836912460246,
        -0.17835448728784264,
        -0.2198774635938674,
        -0.4858372406100585,
        -0.012881996357899661,
        -0.05463000162186804,
        0.24079833710471554,
        -0.19690384236306324,
        0.08118666251722462,
        -0.18685390167524907,
        0.25299463636888175,
        -0.3258544348156418,
        -0.010649389179664959,
        -0.05422186737258805,
        -0.04126113574593593,
        0.03811344596285571,
        0.0361380600824045,
        -0.18365228925156263,
        0.3241077251305169,
        0.4514864584569278,
        0.05900753985966645,
        0.13549596325332514,
        0.22364466325471755,
        -0.18019219813969967,
        0.09229045956630533,
        -0.03740902004180746,
        -0.015567632831533507,
        -0.10586171728562643,
        0.03625919601077954,
        -0.2818652453565368,
        -0.258976962144981,
        -0.29983925924562016,
        0.09448808382057516,
        -0.2546706493822599,
        0.28062962234722655,
        0.40530093475917306,
        0.2597268973405501,
        -0.17171874329633863,
        0.4426355662175435,
        -0.1557168039715353,
        -0.1384345546346617,
        0.09527874649237722,
        0.1606769254270034,
        -0.09116136126884833,
        0.2866659157149083,
        0.3535253852090725,
        -0.21139279822192747,
        -0.27539769326494445,
        -0.10255991670886999,
        0.19860822993947846,
        0.1698225347224378,
        -0.3243727310867385,
        -0.11130220702794691,
        0.4018589702872081,
        0.4599049564462838,
        0.10422510492533577,
        0.28011769514987117,
        0.33980346392374683,
        -0.2778070924140128,
        -0.4341187341297277,
        0.11135855555721896,
        -0.11530839500008117,
        0.2107524936739401,
        -0.20632108229589952,
        -0.06603763994607836,
        0.30829111748225535,
        -0.40675226741596915,
        -0.0921580944061915,
        -0.3467584989115541,
        0.033614045313389185,
        0.2327707172779172,
        0.48718727513699633,
        0.25346768901005357,
        -0.3557492466599458,
        -0.0629938816610992,
        0.04218906813337375,
        0.13776113796493772,
        0.20084251107969953,
        0.4733070528297808,
        0.44220735086365315,
        -0.29143927846891926,
        -0.34161595877450823,
        0.4700318242448783,
        -0.33947914865499296,
        0.4682257707915777,
        -0.38016286163014956,
        0.0849504807749123,
        -0.37011716938548955,
        -0.366200895237331,
        -0.16616633082404952,
        0.29374462911940513,
        0.20226407558454051,
        -0.18272628937164836,
        -0.36291185005955207,
        -0.1413733305098941,
        -0.3258489204473376,
        -0.26498131682697657,
        -0.003049689587606763,
        -0.011276699347318231,
        0.4226122025503416,
        -0.4102404852690523,
        0.03289120993677075,
        0.06481063362815453,
        -0.35723008059680805,
        -0.13948530920730262,
        -0.3621296265717846,
        0.39364249810773644,
        -0.15145810706035667,
        -0.4351482511786151,
        -0.024824708477930946,
        0.029037099046871018,
        0.38722425100960245,
        0.21908617944189157,
        -0.2938622706444546,
        0.4083522766614933,
        -0.49494222013303346,
        0.19719378131649523,
        -0.45784221390656155,
        0.3196851798815653,
        -0.3106019119033433,
        0.2972848125240958,
        0.31341896804599245,
        0.27148321909472506,
        -0.38985004375097854,
        -0.09971865019310033,
        -0.3952025067405023,
        0.2186299259247355,
        0.4940616456920436,
        0.022729118987897867,
        0.1519646233537052,
        0.1670571437524747,
        -0.3572829110087833,
        -0.12853837275467184,
        -0.15110314687800497,
        0.25062290864964054,
        -0.08861387196035131,
        -0.13195323969584472,
        0.0489980125640983,
        -0.29405854496628836,
        -0.4347079161940115,
        -0.2619982716444119,
        -0.47915245413008745,
        0.16946179712989862,
        -0.04323895436153635,
        0.11664969057428898,
        0.06775277179013262,
        -0.44580905756118716,
        0.315075753781875,
        0.31887239610609075,
        -0.4924136918461125,
        -0.06981469054174749,
        0.2857241949326139,
        -0.08455409010653991,
        0.3597869071043509,
        0.19520371982170193,
        0.16062973718611695,
        0.40576671372897877,
        0.27895723537977923,
        0.08496656080697773,
        -0.45269874106112573,
        -0.04552711450140112,
        0.18873863607324415,
        0.023161153227521325,
        0.08473652645994467,
        -0.15064743818918147,
        0.3411918495735765,
        -0.254561546179103,
        0.13953911605883473,
        -0.06324655599264772,
        -0.3512610807627936,
        -0.4809230687810201,
        -0.3700802985544547,
        -0.21178480219279505,
        -0.027635033146443777,
        -0.4732350298532725,
        -0.43286318518064926,
        0.2964103741914742,
        0.4802344783367455,
        -0.06899182430016604,
        -0.030211914002152285,
        0.10269461200616559,
        -0.40313115620081996,
        0.03868394976887379,
        0.17401799341136426,
        0.44427250618912795,
        0.1431666210444683,
        0.044901631411245146,
        -0.08987805067156895,
        0.41182221470649505,
        0.023349742441345023,
        -0.02240917956433508,
        0.23377478359063342,
        -0.06213510694512214,
        -0.4327474295297157,
        0.09183236666727335,
        0.3660141058091071,
        -0.1306865356537964,
        -0.4038245576998958,
        -0.3942876615895152,
        0.40633230057278347,
        -0.3889099382635435,
        0.1542014896189854,
        -0.41249273714727586,
        0.01236947947620226,
        0.411192841565859,
        -0.26552845469519104,
        -0.19262705380044653,
        0.11135962651540832,
        0.07347496918602192,
        0.06048219128125232,
        -0.1079642651377819,
        -0.4591057176130363,
        0.09523490092888864,
        -0.22323347695976847,
        0.12042396126935428,
        -0.06211349950068079,
        -0.23138188638356783,
        0.49578899792767817,
        -0.17836255003145218,
        0.4710478108314653,
        -0.022290055143585175,
        0.03401536535274452,
        -0.2311177886003365,
        -0.3261878136906021,
        0.20614621369516983,
        -0.04445633071881627,
        0.08516861937870168,
        -0.3174061378763844,
        0.009966134827485873,
        0.15868612675220284,
        0.25975790595297554,
        0.16654734829490114,
        -0.08621154733997693,
        0.1852465239164235,
        0.09687153546837568,
        -0.022595630943685996,
        0.13030111209067874,
        -0.19363835441240973,
        -0.43683275585511205,
        -0.35216439147622314,
        0.4727196754615799,
        0.3927088090464318,
        0.32703390240378305,
        -0.24082702513451704,
        0.33885248235846854,
        0.2895589544192462,
        0.041210538739447244,
        -0.19701410726801716,
        -0.393168356255877,
        0.49778771503243935,
        0.49877439778385746,
        0.3509106862394915,
        -0.05424636252475534,
        0.22964074142078117,
        0.4104949632714514,
        0.04198819675512433,
        -0.37487212038789874,
        0.4762691707509863,
        0.03773349673675397,
        0.2696265821805066,
        0.122511951702167,
        -0.4352258534355723,
        -0.03803292450824258,
        -0.4880248260006764,
        -0.23409997131772953,
        0.46153586731771734,
        0.1914607437078285,
        0.06569178701520262,
        -0.38795638011486033,
        0.1852405095267522,
        0.10544528528868624,
        0.1374627180079807,
        0.1883345885040325,
        0.42789601450697845,
        -0.05263648113972397,
        0.1110022924717905,
        0.029760929522974933,
        0.08902379776373004,
        0.17934311958911753,
        -0.31203606598365596,
        -0.44445425557242657,
        -0.38366852099932636,
        -0.4572901568018436,
        0.05509399272340354,
        -0.19489102249599077,
        0.2846466839352161,
        -0.33810042192555745,
        -0.349817438215522,
        0.3656067342856295,
        -0.41032882404545834,
        -0.1471159316733257,
        0.19005006432810356,
        0.06271335061867178,
        -0.2331797956338033,
        -0.36530343975191626,
        0.0777433500610728,
        -0.25187979586753007,
        0.35609069910653135,
        -0.23514714794714064,
        0.43309736245617625,
        -0.4782393691549509,
        0.11091855142334217,
        -0.21765972045467685,
        -0.0253874330080045,
        -0.0634830158910834,
        0.30910226753276693,
        -0.31473789204071734,
        0.2678003138226289,
        -0.4659531419650008,
        0.13673926875784959,
        0.32367331353888784,
        -0.07059057836707028,
        0.349076818038054,
        -0.14521720304540486,
        -0.1450235507515092,
        0.4108379345253993,
        0.49039743973984384,
        0.28918600250773696,
        -0.27054123722192847,
        0.44236213013041914,
        -0.1344641442074871,
        0.3676637369875184,
        -0.17812081564845017,
        -0.28235965058909374,
        -0.24229217950262183,
        0.19093299576189848,
        0.47955990362615,
        0.020952547948351663,
        -0.3928028905570423,
        0.18471820453009824,
        0.3985563734899096,
        0.2815195144112246,
        -0.4981628770219756,
        -0.18781409217038814,
        0.2765266060309549,
        0.20134487220023778,
        0.49608084542758035,
        0.3981852919500053,
        0.2982222373247352,
        0.18954895911080372,
        -0.11945091439285327,
        -0.46499581793318767,
        0.26816473441237454,
        -0.042938653116673,
        0.36500031519164866,
        -0.36822070753868974,
        0.3571556992323238,
        0.14543378426945197,
        0.38612710160044617,
        0.20127877313508924,
        -0.06384526788515144,
        0.016021246716007576,
        -0.4016427975234784,
        -0.25751430174947654,
        0.07494197872237152,
        -0.3222188093031365,
        -0.14151206085956225,
        0.14317861901550089,
        0.09474709357700928,
        0.39382533449417045,
        -0.06679580807440566,
        0.0536441130326073,
        -0.07815638305855765,
        0.25487385707963484,
        0.12568135857054152,
        0.44534977427695377,
        -0.3585202438699484,
        -0.3727964158307705,
        -0.20752066829327742,
        0.11625499598718447,
        0.1385279900981402,
        -0.29843348564047856,
        -0.22858391345453932,
        0.09542505012660296,
        -0.2356204203611405,
        0.32988922869549075,
        -0.3934048687977365,
        0.28261922257735006,
        -0.3469696971683671,
        0.21420134259678347,
        0.28210223659645184,
        0.44342068338555074,
        0.402075757662667,
        -0.47551386385019623,
        0.16103883633941052,
        0.41041877193048637,
        0.27027892597581127,
        -0.04581962328465061,
        0.2502734891676963,
        -0.21590889886770237,
        0.30308382276199863,
        -0.09365887414493546,
        0.4709049491616738,
        -0.4721095153768621,
        0.08271267800613458,
        -0.3700537251297987,
        0.26613879621089587,
        0.47050224536183705,
        -0.008036421227572976,
        0.34132827648192066,
        -0.26698565848626055,
        -0.47185688185700947,
        0.3032342721659741,
        -0.08945585339725692,
        -0.41595783643530815,
        0.17275554716341257,
        0.40111148695866206,
        -0.4162125342070844,
        0.11079182505292706,
        -0.15238768779178913,
        -0.4575568730506737,
        -0.42677938321402986,
        -0.45465432416877705,
        -0.19329599772070505,
        -0.19211748919809868,
        0.037452082861895164,
        0.1207394626555861,
        0.35043598209988147,
        0.3562309054187389,
        -0.32886831545728334,
        0.1276490640282072,
        0.3766588533388927,
        -0.2500914534380453,
        0.10300930017735765,
        0.48827522433025594,
        0.1343880725821892,
        0.2015163542158438,
        -0.18921199473277628,
        0.4925172277244201,
        0.3314515466712753,
        -0.17723959897480257,
        -0.19820324638627762,
        -0.49520144122335963,
        -0.018848417306514986,
        0.3734114368069894,
        0.28491381727308474,
        -0.35244697353024024,
        -0.2583221430998024,
        -0.3387645700239478,
        -0.24036413879166074,
        -0.29742409186264884,
        -0.33500815321122956,
        0.05317965123790902,
        0.41424763050121316,
        0.35460799811827015,
        0.12132943476750857,
        -0.18380501578693187,
        0.4083465911846246,
        -0.2889744180565381,
        -0.4613185864260736,
        -0.28399450778424007,
        0.2900641643451747,
        0.20068257969982584,
        -0.18919903954940664,
        -0.28018368243117464,
        0.13725627429540743,
        0.011518277105878272,
        0.294096348074822,
        -0.05415661382304826,
        -0.4165771523970463,
        -0.42954599243910596,
        -0.26909699201720316,
        0.023579064485199308,
        0.2147444697321964,
        0.05612695558650127,
        -0.49022572784900464,
        0.45295915877529214,
        -0.04183893328383825,
        0.04034368775567776,
        -0.3077908008134169,
        -0.2566108457163666,
        -0.28582088262582983,
        0.10645368169375846,
        0.40867775908126514,
        -0.23588343023868785,
        -0.15054654132076606,
        -0.21250919962283032,
        -0.47091575805484676,
        -0.48949801454789865,
        0.2809739102046961,
        0.47752014876380955,
        -0.4576105087527337,
        -0.42308774355299184,
        -0.04784542574153994,
        -0.1957723489826766,
        -0.2533665919825828,
        0.3697696932484933,
        -0.30693291105236054,
        -0.3053231340911168,
        0.40603346478697455,
        0.12318125066309327,
        0.18604243460496772,
        0.16836120168924773,
        -0.4742111009342508,
        0.4779413843798517,
        -0.47123581499248546,
        -0.27259328342484956,
        -0.024782797896397257,
        0.3376165817091763,
        0.4494514161087043,
        -0.49115892332814215,
        -0.36161237908373767,
        -0.48402273750850544,
        -0.3628759732818707,
        0.41375437063476417,
        -0.41529492648351907,
        0.039162287570273735,
        -0.30515778512959,
        -0.49208774757544704,
        -0.22028858697474152,
        -0.24106048802448843,
        0.042790214609038646,
        0.3737679675521567,
        0.030090633992810867,
        0.0332773288001198,
        -0.2210546129308072,
        -0.3200560677069385,
        -0.020710583308484187,
        -0.10602576186429302,
        0.4017174662483175,
        -0.2917285745896435,
        -0.4743648207398047,
        -0.44832855577599406,
        -0.18284434717328124,
        -0.2811357131700539,
        -0.10310246019918667,
        0.3802636072667511,
        0.2281690078580212,
        0.09339264388954271,
        0.33194062488216824,
        0.3790727837741419,
        -0.43506366164802457,
        0.1891396197260835,
        -0.3688912350284417,
        -0.0892387364363485,
        -0.11038819294946112,
        -0.2284017831693791,
        -0.4556187300562684,
        -0.3056980348809465,
        0.20636578932618754,
        0.4573239780930346,
        0.40956958769189067,
        -0.4771218453900474,
        0.06956923951755023,
        -0.3092849065674018,
        0.02087173417554289,
        0.033578797333180255,
        -0.3376149071016149,
        -0.41206985554892817,
        -0.019577919209731953,
        -0.44738443450718623,
        0.34105707259905693,
        0.3886746114696109,
        -0.48514301962427864,
        0.30086425765551117,
        0.33869349171409013,
        -0.4602554387739656,
        0.08715819142823766,
        -0.025118619533550657,
        -0.3247814555334305,
        0.31879791034835003,
        0.06630423269153796,
        0.3123419706566418,
        0.4351171263143544,
        0.4698794175997494,
        0.1626201376675538,
        0.3728672431702893,
        -0.43655193502384493,
        -0.16210092227092066,
        -0.025160733657816126,
        0.012211700234370015,
        -0.13242911970103766,
        0.31698690249061834,
        0.08232487922961962,
        0.34662461244705234,
        -0.05692717239376299,
        0.4417710557883895,
        -0.14414095590809628,
        0.49320435376666405,
        0.06632329694058037,
        -0.12277282102226295,
        0.12062850494168631,
        -0.39374327524849406,
        0.18687878450605067,
        0.09983982615186238,
        0.3051908041872371,
        -0.42430475334996764,
        -0.08051466289681675,
        0.08623907338178638,
        -0.43917004035255347,
        0.2626184929929817,
        0.40041236661464163,
        0.1256938326954904,
        0.26416125854795647,
        0.4444260316656309,
        -0.045341578489963674,
        0.01190309294545877,
        0.3881907562554132,
        0.17676484612431387,
        -0.22330675391413524,
        0.08941241744148443,
        0.2673955680059187,
        0.3441806982082882,
        -0.37020578554396655,
        -0.3328877357405393,
        0.187462220427424,
        0.21598029466549562,
        0.22954234662150907,
        -0.010734217242278743,
        -0.11626546809299998,
        0.4604211934004486,
        -0.2452596193520935,
        -0.21323484733877685,
        -0.47519697572664266,
        -0.41553868856569187,
        0.12526599701109375,
        0.16270695016622194,
        -0.2810904808818552,
        0.2400878971889927,
        -0.329563241783558,
        -0.12802884430532058,
        0.1367444009604165,
        0.2773328122772514,
        -0.04717168311967834,
        0.30835841356298077,
        -0.027948523576639683,
        0.16391058151722004,
        0.3335080228952504,
        0.06269309288834413,
        0.0625261298072678,
        0.43292182438378224,
        -0.4659733842372418,
        -0.48125751108861403,
        -0.46360260047958823,
        -0.1890654550766825,
        0.037613425235155096,
        0.11788233159115458,
        0.1813866223200521,
        -0.4829610924815916,
        0.37388421104743064,
        -0.26246710980189614,
        0.46742444654101845,
        -0.1541672368718704,
        0.3447814801353781,
        0.2126658563156888,
        -0.47708656310680553,
        0.012063117311728266,
        -0.10629372184657215,
        0.4933847351320959,
        -0.2680224993727027,
        -0.10498555719253044,
        -0.32576787978209387,
        -0.49531171877545843,
        0.038397057476346697,
        0.12008061652327895,
        -0.3374419582024799,
        0.3375265182744446,
        -0.2778860865902494,
        0.4373564292286495,
        0.17340171723906128,
        0.47126004814084865,
        -0.06211616703228928,
        0.33839006007155303,
        0.10522606106984922,
        0.21496960802076248,
        -0.08947125525445498,
        0.011382381812144349,
        -0.22813124624882608,
        -0.16300099667335555,
        0.42554803955489273,
        -0.4217007273994584,
        0.3321644643819677,
        0.24997485741486114,
        -0.3379985027213549,
        -0.06943268209417297,
        0.3352967392154901,
        0.008818267118326895,
        0.007805814807353206,
        0.0037799002452334474,
        -0.32807978788616454,
        0.4907156706824024,
        0.24834300191187686,
        -0.21442803771835128,
        -0.15268279659596362,
        0.20763331246883177,
        0.3701175406393582,
        0.05149838608922952,
        -0.2136449497927796,
        -0.14116683198375324,
        0.04470521071537126,
        0.38633660015842186,
        0.20392545708345933,
        -0.2744563425724825,
        -0.47993963321882815,
        0.15744210088609456,
        -0.23669791438429877,
        0.37663407169147056,
        -0.33954766941092296,
        0.49629808045927604,
        0.3007626577310436,
        -0.2476366945307773,
        -0.4842900994468382,
        0.32073390844112104,
        -0.3894844932883327,
        -0.3479365027477711,
        -0.115637950176109,
        -0.3274207035589076,
        -0.4051876405743059,
        0.04920600153166377,
        0.1547796463094765,
        0.28531831521528683,
        -0.4421017522257359,
        -0.448706511189894,
        -0.027654291024938216,
        0.24170049757982492,
        -0.29213423761907953,
        0.09549358068281477,
        -0.3894679297591215,
        0.39865309982354735,
        0.3735410897598519,
        0.4363545079064731,
        -0.11092599265248138,
        -0.4173832667675874,
        0.31753434781499,
        -0.05861357181499727,
        -0.15050695844072015,
        -0.07261415994638631,
        0.20918205309684046,
        0.2280677687035274,
        -0.06416867235978396,
        -0.23346531252089864,
        -0.34914585309468915,
        -0.4471557786290552,
        0.4622173410034056,
        0.46727842373006545,
        -0.43272332376841083,
        0.09301017815691337,
        0.47314585237148554,
        0.07589460836871575,
        0.47066559774510397,
        -0.35469040450360445,
        0.21933995123523642,
        0.34128216374790077,
        -0.3854114671686324,
        -0.29566336812630567,
        0.44666570949905393,
        -0.266854670953236,
        0.11652474498314469,
        0.41176095326460493,
        0.2113148060555553,
        0.27305372210823164,
        -0.20095278939823946,
        0.3495467137489615,
        -0.3616977807377264,
        -0.10004465709818644,
        -0.01084165013691829,
        0.20391848519507216,
        -0.46591271063518824,
        -0.4248006118508787,
        -0.13187702559837133,
        -0.3443487866708932,
        0.4096668317631549,
        -0.05633569873752875,
        0.08924392068941034,
        -0.073858673895563,
        0.35926445825362263,
        0.4255864209083291,
        0.40033757940442105,
        -0.4188708842382054,
        0.11089638661446821,
        0.2769612084273181,
        0.4175374794578818,
        0.05615723686557261,
        -0.030081399174743062,
        -0.32383163205657683,
        -0.49183803748233845,
        -0.47592124206309927,
        -0.2214264557194663,
        0.22030419454400518,
        -0.09774260436281146,
        0.04186883949671172,
        -0.22866298483170633,
        0.4732991223034345,
        0.4203504300216888,
        -0.23598074498176613,
        -0.11570109524555117,
        -0.39461405792976545,
        -0.10470845950127416,
        -0.25858803785459494,
        0.22662548522728576,
        -0.18729231406445834,
        0.18588698360066458,
        -0.47345016427761977,
        0.20677007271766046,
        0.13732932549981902,
        -0.209589188210634,
        0.27104274673634854,
        0.36418576486921095,
        0.40578009945812576,
        0.1944842086796167,
        -0.060882864019199734,
        0.08481335647429145,
        0.2620358730303338,
        -0.18424162328493188,
        0.3833683261949874,
        0.28667362326409696,
        0.194337546414027,
        0.2590026462953694,
        -0.4488087923543387,
        0.3129979422955431,
        -0.05337075252607493,
        0.18647116191900703,
        0.15071051640323307,
        -0.07646417315168696,
        0.235754468465462,
        0.3577153054284995,
        0.4944402045090077,
        -0.48249293110141733,
        0.4149130950443902,
        0.27506560502230626,
        0.09564915603738489,
        0.26225037852080213,
        -0.15176118034438557,
        -0.0954977070213957,
        -0.4593937833371201,
        0.4284036974612585,
        0.30731368277610216,
        0.016426784553775886,
        0.11260644652647711,
        0.3238946322005031,
        -0.3338104204196086,
        0.07027044496806578,
        0.22307136128618787,
        0.08277403422397678,
        0.47672809359139445,
        -0.24368502392490166,
        0.17934855844765785,
        0.2790931305428441,
        -0.10920480982147307,
        0.44025527382941576,
        -0.08797589009008921,
        -0.35353945699338474,
        -0.32961029221686766,
        -0.10687831359063293,
        0.4869538614597565,
        0.41491624382263914,
        0.39960408186111607,
        0.16317414585955403,
        0.003330252279021728,
        0.14234066068439477,
        0.10517370394106751,
        0.45472814601631795,
        -0.10707282080875524,
        -0.10817351572830547,
        0.2292244734877431,
        0.30377926399011235,
        0.23932548828921807,
        -0.34041287867514336,
        0.13357713025837215,
        -0.23116523483233453,
        -0.22583121713369791,
        -0.24455157693106133,
        -0.491179801745255,
        -0.38040730481195906,
        0.17180541846032238,
        0.2959187019010985,
        -0.3931343967619446,
        0.44669783228147253,
        -0.03417239158709762,
        0.2824582028213902,
        -0.4584750814375699,
        -0.42006795772699657,
        0.31454524346953516,
        -0.40348373556260286,
        -0.46255626843098663,
        0.1575626292380864,
        -0.456178827194486,
        -0.08505792806638657,
        0.3151416804403615,
        -0.38595551960162866,
        0.34262527374825924,
        0.41012136183327574,
        0.47506063278063715,
        0.1141444118628232,
        0.3213398473224708,
        -0.34076816189063097,
        0.07412255174924265,
        0.3753916769034603,
        0.3655289556429625,
        -0.3284044239500534,
        0.3287173182126004,
        -0.10194914172044012,
        0.012477448518422807,
        0.29725119147521584,
        0.16825346776377514,
        -0.17402312509631523,
        0.3559652199630646,
        0.4307711320293396,
        0.30854824000231584,
        -0.45020317318884917,
        -0.484825932918695,
        0.07548633439773511,
        -0.4005738910243627,
        -0.4128784388254728,
        0.371210282018374,
        -0.4524260853071851,
        -0.21882999279543036,
        -0.19500681317312096,
        0.4325421126348513,
        0.4467289727797966,
        0.2845797557714169,
        -0.041365911191543425,
        -0.38276583096083705,
        0.4638074460997008,
        -0.27652968238180864,
        0.14116257924943965,
        0.2784812757792071,
        0.00970676914962254,
        0.38550349135081363,
        0.43891459721401005,
        -0.13396343684331047,
        0.20939838473735695,
        -0.4055965245273855,
        -0.06908168784093671,
        0.17217359807580446,
        -0.22521565024673884,
        -0.1267701443107907,
        0.2594669298974459,
        -0.28896533453097806,
        0.4223331110215205,
        -0.35913056464339255,
        -0.27702897831667905,
        0.11439476167734808,
        -0.2699288747608767,
        0.339958321172681,
        -0.14117169647552152,
        -0.37275626951154417,
        0.16903640585379398,
        -0.07256240472168307,
        0.12390587061636316,
        -0.3880632501071186,
        -0.44698284918542097,
        -0.20466565551243365,
        0.015155511488731621,
        -0.300929479472302,
        -0.2917873469784996,
        0.33615868341678323,
        -0.257956718086107,
        -0.15298177110833355,
        0.3712958544604542,
        0.4979004226042054,
        0.27224050839847314,
        -0.35947014072742556,
        0.26469328614878096,
        -0.40956934156677327,
        0.2995182412304104,
        -0.2239891879263981,
        -0.2807529635098037,
        -0.07386430796192489,
        -0.35779337499493535,
        0.16686847388457426,
        0.32312918095303245,
        0.16636192017225582,
        0.29742710453590715,
        -0.33873172688930475,
        -0.22745664145278788,
        0.33739800530164177,
        -0.17347390690935482,
        0.24694026449195094,
        0.06688273515421594,
        -0.3506665003967788,
        -0.27866835700527437,
        0.42327782125884317,
        0.4019299282193026,
        0.09596118730293546,
        -0.4840548683556547,
        -0.48322101004917883,
        0.4377384024680091,
        0.2986557273159478,
        0.19786973447269274,
        -0.24043491748904322,
        0.4086840169884375,
        -0.42693560998033486,
        0.1880311248380383,
        0.18819298584695388,
        -0.1296850386802869,
        0.312711870418949,
        -0.31044127713487035,
        0.46222243461428403,
        0.43289605820404886,
        -0.16094460656364395,
        -0.1702202507535332,
        0.2948910550056708,
        -0.15694225579841314,
        0.0885349794425293,
        0.19111465109386772,
        0.4452415362189308,
        0.2539861322536694,
        -0.22414098849001862,
        -0.1467395006619826,
        -0.4249628266016626,
        0.30432279350852254,
        0.3446941557324058,
        -0.27696387758336616,
        -0.027987011664558747,
        -0.15386649390420282,
        -0.21718377830827673,
        -0.47073808233305214,
        0.09471467533048217,
        0.45048590789569753,
        -0.3289502812756542,
        0.25419302452598425,
        0.2730197823139887,
        0.03546616762350885,
        0.34805394928057454,
        -0.07669552863780549,
        0.1211832538587293,
        -0.4319811284775792,
        -0.3472804372685865,
        0.0870318428251663,
        0.3422216468500412,
        -0.025853152052132455,
        0.43359290356770874,
        -0.006247281291532292,
        -0.0898605218732601,
        0.28362048898984327,
        0.42064575973915075,
        0.4009892248664587,
        0.15951138356927086,
        -0.28505048411992784,
        -0.1911995487771424,
        0.057511544068598486,
        -0.4638160105008018,
        -0.20120213707534917,
        0.2879654849978249,
        -0.2489015622196683,
        0.14819335575618675,
        -0.19612426701197783,
        -0.36663202616270196,
        -0.1665428987042189,
        -0.17882748536094528,
        -0.22210698545188434,
        -0.18940713627315797,
        0.4186025102521721,
        0.07475327919893504,
        -0.0027832217587057118,
        -0.23582146942852833,
        -0.2102181370323314,
        0.2993178881405538,
        -0.1659805329579771,
        -0.3509619216703025,
        -0.1127356970194231,
        0.17335257263431214,
        0.44073635084435525,
        0.3329723022019626,
        -0.005115905993943959,
        -0.33150686401916185,
        0.38606991904660837,
        -0.4604322009328895,
        0.08283834312668459,
        0.4715278068976325,
        -0.18302738628463922,
        0.02290330637710436,
        -0.19452377378825558,
        -0.08447703126677897,
        -0.3911900896146553,
        0.11759642233066336,
        0.20141495260554287,
        -0.37077456771276374,
        -0.4895914916367393,
        -0.2585667623213176,
        -0.14567809165177736,
        -0.06544844107660097,
        0.2123674693766,
        0.020319261280234535,
        -0.46732525277941805,
        -0.4809733208068273,
        -0.05642395447144555,
        -0.33152880599679513,
        0.3082039794386062,
        0.2459740063624627,
        0.3041545351610879,
        0.1168550091230327,
        -0.2905461724691494,
        0.2921081440810218,
        -0.2107049924915274,
        -0.33504345235270294,
        -0.4611063041000317,
        -0.10962045289138078,
        0.4549818973350638,
        0.18417462637572846,
        0.15998529725860722,
        -0.12000243151286238,
        -0.06384730348207857,
        0.40961506254873814,
        0.4989280270717844,
        -0.1663816390984979,
        0.08787339609716482,
        -0.01307533234400049,
        -0.29683243051546426,
        0.011359339015587167,
        -0.4110696290688479,
        0.29616161163401133,
        -0.09536930273450805,
        0.15430919214592154,
        0.2802791218767311,
        -0.2645520454858148,
        0.4476812767600138,
        0.48694477937972924,
        -0.01467677304943027,
        -0.42777527270875804,
        0.13950825794812216,
        0.17851224836126256,
        -0.28183092731500303,
        0.2779568657394983,
        -0.2180854228692265,
        -0.23992960318265244,
        -0.414699798973178,
        0.11897767523402125,
        0.2559997174802331,
        0.19430337425102162,
        -0.19452480897049584,
        -0.20269858994308598,
        -0.44608005525753147,
        -0.32445641743688536,
        -0.24557910450691423,
        -0.29120086784590016,
        -0.45785507803448466,
        -0.1007503453579428,
        -0.490065913146974,
        0.003276350327514943,
        -0.49726671929152433,
        -0.11833442494359436,
        -0.4031914229928466,
        -0.3380528941913058,
        0.1968159988516558,
        -0.4273770587531609,
        0.28042791561389113,
        0.18042856885122172,
        0.14081762267007847,
        0.030776564529273354,
        0.22217445092847987,
        -0.27968644409118804,
        -0.09385723112462918,
        -0.4821339125058399,
        -0.49577118808236187,
        -0.08430375334186235,
        0.11688107101609146,
        0.46548326143969887,
        0.33890599143336775,
        -0.4466183875542622,
        0.41738094225274647,
        -0.10420060416206789,
        -0.08560001707907139,
        -0.3408205120110549,
        -0.4084242313245148,
        -0.04806582972389961,
        0.04440854738981914,
        0.3521763955500221,
        0.16460233368084387,
        -0.30819167564066463,
        0.09583094161596906,
        0.32078686646075827,
        -0.2525930280155093,
        -0.20753913656272405,
        -0.24222152759628257,
        0.47214545840419986,
        -0.35287399059401636,
        0.1324507837442338,
        -0.13832584337597698,
        0.22483436223510844,
        0.00027987093406733887,
        -0.2810845839023768,
        0.3596839099323207,
        0.03709883735912567,
        -0.47803886156243236,
        -0.28141071442014554,
        -0.3312746603920733,
        -0.17793108359244003,
        -0.3371969561757837,
        0.14524132037779014,
        0.10849236860227762,
        -0.11211631252057841,
        -0.2424847691336267,
        0.13521871910476613,
        -0.12448327957254912,
        0.26797745401420514,
        0.36395192260920484,
        0.21959010881979124,
        0.4391242521743911,
        -0.19864223188850683,
        0.3511348170530132,
        -0.09430039093817066,
        0.35792089518928094,
        0.1174168824999855,
        -0.21341147337264643,
        -0.2197292089452345,
        0.3570146803875064,
        -0.01669080840218251,
        -0.3473403767857698,
        0.08009388563473852,
        -0.3585024968553566,
        -0.4388185659628455,
        -0.23978694472201023,
        0.275027770501577,
        -0.2918220501107094,
        0.3634735070728683,
        -0.4597389827006968,
        -0.16289880243271637,
        -0.49572406091058363,
        0.18796563653984488,
        0.1151478327467561,
        0.28440467589671947,
        0.3156031956646276,
        0.40778033756738097,
        -0.07636144940385392,
        -0.13337060859236294,
        0.10856317520295322,
        -0.01404600024111502,
        -0.3064228986066171,
        -0.06744542820770516,
        -0.1084206529763716,
        0.388903007627455,
        -0.41910131307991283,
        0.22682457537259737,
        0.20599514497191473,
        0.4139671278398447,
        0.06843462906340159,
        0.20531351403898468,
        -0.3768986699006185,
        0.37363466155839387,
        -0.44806328837767107,
        0.10803377778135703,
        -0.3873155340668235,
        -0.27080898836979916,
        0.18758001534433455,
        -0.11634222289250218,
        0.18613180617300096,
        -0.2798970295536545,
        -0.4041558452500553,
        -0.1531304096941073,
        0.005742433961213211,
        0.3097863403694724,
        0.3663825107121359,
        -0.1215924797147554,
        0.4426736867742781,
        0.06324818700976476,
        -0.31576905371712227,
        0.003644795704121573,
        0.1798697281627425,
        0.2629892835866313,
        -0.38049986754587883,
        0.4725295748130851,
        0.05699704597197941,
        -0.49509566000158656,
        -0.21453724181707778,
        0.33219288449445383,
        -0.4455821593628261,
        -0.18819195288026846,
        0.17842568567439943,
        -0.3725692922817896,
        0.2179368373483307,
        0.08942719115342879,
        -0.23156850214832014,
        0.31035979189527874,
        -0.42704785689105984,
        -0.3066626420450268,
        0.26439948499698496,
        0.10203053367696435,
        -0.2834068702048945,
        -0.10742029889620497,
        0.3482989034818268,
        -0.3268820598481088,
        -0.43555751589402425,
        -0.0014922600777524941,
        -0.2960895070973162,
        0.18254360669581615,
        -0.2554746054115141,
        -0.31071466497978484,
        0.11379036084674565,
        0.4596078779349797,
        0.04832174822336821,
        0.46622508812892094,
        0.49159053541500863,
        0.2515738595609315,
        0.0740778365518634,
        -0.12782975293973586,
        -0.42113170507943753,
        0.02827803998271705,
        -0.3207095663500692,
        0.0669454892703033,
        -0.06645461333198399,
        0.05681472210054184,
        0.07570388697288688,
        0.0600257010812133,
        0.42753400002538666,
        0.053904813446326916,
        -0.3824671522149564,
        0.3844029116294335,
        0.2415741788493112,
        -0.13227537852591653,
        -0.05624085161628456,
        0.062240652370876615,
        -0.10824197282967984,
        0.16965496962682536,
        0.49810901420863274,
        -0.44767123635262174,
        0.4175247181115078,
        0.4900439110941297,
        0.3629802809584769,
        -0.03663311033308636,
        0.16325069755268407,
        -0.03333979418180166,
        -0.12678552901693296,
        -0.34376619415459353,
        -0.2990197051590193,
        -0.022763285518004772,
        -0.2178320765658891,
        -0.29194619411989564,
        0.10903147772239574,
        -0.2173280782564585,
        0.33231006312806455,
        -0.41192805278183253,
        -0.2730255659935492,
        -0.0755832604165928,
        -0.28580275423113244,
        0.33699078336869404,
        -0.00780260773835828,
        -0.4383199112439863,
        -0.29599324140010996,
        0.19863353709451748,
        -0.19101581911036225,
        -0.20060301109143974,
        -0.2892427785049101,
        -0.4875128790801384,
        0.25829324466502923,
        -0.17441537663543194,
        -0.25600648934024306,
        -0.39474317305815865,
        0.005388737104742303,
        0.23877150850136286,
        0.44707703711780145,
        0.4326431440880716,
        -0.48275307927722577,
        -0.004029110615754172,
        -0.01471020006519086,
        0.04923323436138005,
        -0.07348513581775373,
        0.4275701317594791,
        0.09393109877474681,
        -0.06406723417944493,
        0.4627566429786999,
        0.017886944103201907,
        -0.49187971234480876,
        0.12703999909152452,
        0.4650882470833738,
        0.15314638528023328,
        -0.3002680715389877,
        0.3382653841045734,
        -0.4642426745902456,
        0.34706664764310835,
        -0.36512821585926725,
        0.34118646162082855,
        -0.32152186742360933,
        -0.3536372323068634,
        -0.24837230150671818,
        0.003974686428839469,
        0.19225887278388587,
        0.012430013145763308,
        -0.429039741334193,
        0.4470892800650752,
        0.33856866124223195,
        -0.1333752407838149,
        -0.4623565783365483,
        -0.09064759149736812,
        0.4630793890434408,
        0.4538901090448778,
        -0.3311621678120026,
        -0.3029047211250404,
        0.47683230539835375,
        -0.16142004994719894,
        0.19604291989421607,
        0.42894585041285505,
        0.32581291227932896,
        0.3043319789482545,
