{
  "layers": [
    {
      "type": "fc",
      "name": "fc1",
      "in": 128,
      "out": 64,
      "weights": [
        -0.4476364011490557,
        -0.4128133224773677,
        -0.09275823632960167,
        -0.39229976506156095,
        0.4011988779516946,
        -0.4618463338976776,
        0.03620204003392691,
        -0.16780230149032016,
        0.35208661892936866,
        -0.3403376032780301,
        -0.1627833428907245,
        -0.16620360537104473,
        -0.2548366474823889,
        -0.49832944642077714,
        -0.06372420658478162,
        -0.4123865002495771,
        0.0975994644879905,
        -0.43012303854081757,
        -0.1845410262641367,
        -0.051678291693056266,
        0.4053986522844989,
        -0.4072354386215049,
        -0.3578249355684989,
        0.2900718443588016,
        -0.47876402518301076,
        0.4111505480903207,
        0.07340808568092716,
        -0.2346782947384367,
        0.3378376441951344,
        0.26879474747998355,
        -0.1565378418440354,
        0.301496591292033,
        -0.2931375293338886,
        0.1089025261905533,
        0.027074952161416643,
        0.30933852464380485,
        -0.1847368477840119,
        -0.1017618485321008,
        0.2692790899139238,
        0.01275213386406504,
        0.184837218661006,
        0.13835326430549877,
        0.166657631073181,
        0.39009857053690233,
        -0.013863529856436019,
        0.1684702219031471,
        -0.12547836817751667,
        -0.46815869325889814,
        0.2541731718588721,
        -0.3185350840849591,
        0.32019018443383096,
        0.4136459118642296,
        0.15807415740107933,
        -0.3298731123290918,
        -0.16308384720829383,
        -0.10880669292869727,
        -0.42670922187631344,
        -0.043232929798546316,
        0.07316851451053141,
        -0.16389390069016596,
        -0.31093813042192353,
        -0.41184270507392395,
        0.12831752273079267,
        -0.4871708907473866,
        -0.14808631690179885,
        -0.2708702355197158,
        0.03199749068176461,
        0.2236633511192414,
        0.4091532756367794,
        0.13880083924310138,
        0.49179309975191565,
        0.46405917230388183,
        0.12999070972424565,
        -0.2666268159138404,
        -0.016188517356853338,
        -0.32241026942609496,
        0.49195777279421693,
        -0.055500079850925865,
        0.2516501580275301,
        -0.4558701439935561,
        -0.3652723993633664,
        -0.3068230299576463,
        -0.2436376527034575,
        -0.14795246955032382,
        -0.2280701476732484,
        -0.06573141638734625,
        -0.07964268326494595,
        -0.39137916551839835,
        -0.43739122517168316,
        -0.1449385530721209,
        -0.41121109513263776,
        -0.06679968612283882,
        -0.4914387852271307,
        0.03580101860656448,
        -0.42651600728494754,
        0.19420591469923498,
        -0.09579273291575263,
        0.4853481748883274,
        -0.23745998028095006,
        -0.027489259592956672,
        0.2508149412392692,
        -0.16516945947653372,
        -0.15163297933494857,
        0.13912793722811279,
        0.46968607726587785,
        0.38388013812289,
        -0.08096218061263494,
        0.21771790735216068,
        0.17905195164668686,
        -0.12789038070469472,
        -0.26503656250153484,
        -0.4216235218587747,
        0.3789089368844193,
        -0.44284078659070336,
        0.018696124756400145,
        0.03753637750568806,
        -0.35386076633839225,
        0.15593171695211117,
        0.4158231935739135,
        0.2761329698240371,
        -0.11074073338144885,
        -0.3735300411662419,
        0.474929566217395,
        0.017103486653910704,
        0.12961762522758324,
        0.3022766455210377,
        -0.11375383710725417,
        -0.4379442353445261,
        -0.3639842088912385,
        0.16844713703254122,
        -0.1504603143801997,
        0.3710772077623383,
        0.24016450882059592,
        0.4804391466902661,
        0.16883435436449,
        -0.19619422086321736,
        0.29110915790739433,
        -0.4717419657217159,
        0.0215907717112922,
        0.3713946678999259,
        0.014719140206115644,
        -0.362628502074101,
        0.00012251067740853827,
        0.045457741069243496,
        -0.13099945169013538,
        0.3934335602088669,
        -0.1599191494818264,
        -0.2282486116154797,
        0.0063014868143146385,
        -0.29672794873643915,
        -0.177942773218836,
        -0.10182981906067823,
        0.43826248869707696,
        -0.41963818702007427,
        -0.3029051310931816,
        -0.300500655486322,
        0.49526501365800046,
        0.3908087016430518,
        -0.3058367053549752,
        0.06462449007427706,
        -0.41489997059030925,
        -0.18297179725959223,
        -0.15885575447578204,
        0.0376819978167684,
        0.42937432147942345,
        0.3090194309909363,
        0.03418341379944967,
        0.2860800542078382,
        -0.016040962246902768,
        0.2305603280541011,
        0.2769544424729391,
        -0.243148261951184,
        0.3327770443873531,
        0.07794417341911553,
        -0.013880041684793398,
        -0.10418668453024127,
        -0.2758501929019376,
        0.0012575531375331739,
        -0.37389377050287365,
        0.13478275392920247,
        0.39826825107476704,
        0.2905260294765033,
        0.10915778555237732,
        -0.005525578980188461,
        0.19578217405545584,
        -0.37768367907949063,
        -0.4475646290134959,
        0.3616470728871337,
        -0.1381589251929275,
        0.16894729328007219,
        -0.07923833045731021,
        -0.1413294433311051,
        0.27028596735780563,
        -0.1569667174558309,
        0.2537139593993878,
        0.32047812638478645,
        -0.31932394666690767,
        0.47723044310575957,
        -0.437557810234834,
        -0.08527264464396933,
        0.00047479767709390774,
        0.32935773524960554,
        -0.3251213218545058,
        0.05903046858611938,
        -0.13148280926675182,
        0.421682844280444,
        -0.37767320939740034,
        -0.23458393288530732,
        0.3198025867749117,
        -0.17776598740434968,
        0.4442210523827754,
        -0.44839608232700123,
        -0.11158184484754419,
        -0.39253409605064915,
        0.07353032205697285,
        0.46312457849339794,
        -0.17530486551916413,
        0.14683583710657722,
        -0.23408568024002263,
        -0.060778337994467524,
        0.07152110594550798,
        -0.2515866909266391,
        0.19046826999996747,
        0.0009958116334569667,
        0.4054631957637249,
        -0.22497872757033777,
        0.4548546302971884,
        -0.31779416558638696,
        -0.48008777627259513,
        0.16020466012104007,
        0.2337625185541018,
        -0.022678244597422514,
        -0.457239929807872,
        0.49813422964447984,
        -0.35844824220358573,
        0.3704672557844291,
        0.3915326292942939,
        -0.27914299370579077,
        0.3639390172969831,
        -0.03659367930802515,
        0.3995825269014295,
        0.3875234097345991,
        0.2742974456058259,
        -0.21128975819238371,
        0.08010482714262024,
        0.4813135565365696,
        -0.17937663398799064,
        -0.1134991256328145,
        0.1879893085936124,
        -0.43736435568640275,
        -0.24663805004140404,
        -0.331979624961092,
        -0.08394328983406962,
        -0.0750235241397742,
        0.10705854753382738,
        -0.003190311239884447,
        -0.33523046077608465,
        -0.453378928680347,
        0.02477219824439636,
        0.26385668468939427,
        0.4268939013125862,
        0.33963832403762007,
        -0.19724719599009533,
        0.36567324307756377,
        -0.03260845523970979,
        -0.2175529708876428,
        -0.40784127188304087,
        -0.05728758414938062,
        0.044961359779561394,
        -0.22070063049067146,
        -0.30470117538640973,
        0.4408904680768644,
        -0.4322250810601712,
        0.43939225668000503,
        -0.09358704240792615,
        0.2915177900236534,
        -0.38905195101982437,
        0.07000764036669727,
        0.26169622431761397,
        -0.06398827197185553,
        -0.14353375767284826,
        -0.006781189631219875,
        -0.3055400853633098,
        -0.2883699463535545,
        -0.258688472417015,
        -0.4624433424735138,
        0.41002413040529784,
        -0.42656007853410627,
        0.4271381201286817,
        -0.4890438660068578,
        0.15621344985007712,
        0.04692763112448073,
        -0.45815829988813306,
        0.4414667729029921,
        0.23076926087407768,
        0.37913119683337704,
        -0.06433616057913494,
        -0.20861683095121364,
        -0.31407204788785703,
        -0.3872805067707005,
        0.17094985129706253,
        0.32179679218541124,
        -0.2879888898469867,
        -0.4740337077627813,
        -0.1384671867931122,
        -0.34712532560605214,
        -0.27506602246844514,
        -0.27795031286363825,
        0.16242141217034367,
        -0.06539679027592038,
        0.06048546872256788,
        -0.1099131772140517,
        0.4836708374629459,
        -0.0030666227009858993,
        -0.45740539366911503,
        -0.3607773447361171,
        0.23122085422624672,
        0.41262742211550407,
        -0.3740212014168173,
        -0.039895609569014834,
        0.362150865442184,
        0.051800210882795183,
        -0.4825774323565418,
        0.020872260279999,
        -0.21124341813629177,
        -0.2866265521154834,
        0.4366176653447409,
        -0.39427305379122457,
        0.32970048401646224,
        0.2530097446952517,
        0.09282317507591198,
        -0.17513576346534154,
        -0.41722952738024044,
        0.16874515418671887,
        0.4592257468721528,
        -0.32020334587402854,
        -0.37385302874198034,
        -0.024835838820245426,
        0.35135722803155633,
        -0.49468470243687934,
        0.2888336985857881,
        -0.4136933883203182,
        -0.4677088998391379,
        -0.3535908146271636,
        -0.04239369608308863,
        0.4369600355686324,
        0.16130563173194046,
        -0.4403745304318535,
        -0.34830253486047313,
        -0.03866540867316137,
        -0.4097126488810052,
        0.16834960908575702,
        -0.14106708437596005,
        0.4560769260825098,
        0.31970053319893166,
        0.31690722882108124,
        -0.2648669646324585,
        -0.06869914873348659,
        0.1715860079452881,
        -0.4105969319099363,
        -0.49045853099461134,
        -0.17261806376908406,
        -0.09928842376504154,
        0.2868923263915081,
        0.3146521975165233,
        -0.44204486496622497,
        -0.43539705045276733,
        0.42477762140092656,
        -0.21193202410285783,
        -0.3748855847318796,
        0.29262371361855044,
        0.2849880150324958,
        0.10469359080985174,
        0.2674206692040997,
        0.3595977565483016,
        0.35313549297403224,
        -0.23673742326973102,
        -0.07912796753265439,
        0.48444513645157705,
        -0.13225513420543866,
        0.12608862765320406,
        0.3465031416480706,
        0.37681066269592867,
        0.10265377379453822,
        -0.15014470135067737,
        0.19023195536173387,
        -0.4967134609783278,
        -0.14945762227205606,
        0.25885161014570945,
        0.1466040409664432,
        -0.4201150731852472,
        0.21961932766186576,
        0.11000944171577287,
        -0.05528179660359733,
        -0.395381787915289,
        0.09632983026327357,
        0.245576385662315,
        -0.30127454251742514,
        0.13490555195792953,
        -0.4293915168070803,
        -0.2946574634142397,
        -0.14173283109537282,
        0.2780205941264775,
        -0.21670042236533893,
        0.3903160955967432,
        0.4830979223897819,
        -0.3366443038933772,
        -0.47328517392006375,
        0.22872069501219472,
        0.264372512055565,
        0.40092224348620686,
        0.17246595890339833,
        0.28009977335241,
        -0.13447990131376297,
        -0.39918667721463175,
        0.4999133401695608,
        0.10469327942576123,
        -0.2295496603752999,
        0.39276309247525987,
        -0.4264078709400426,
        -0.44321896944443495,
        -0.24514893173313368,
        -0.3699088226849453,
        -0.08925232222105628,
        0.12107826963054313,
        0.01941951209620152,
        0.053716613829766335,
        -0.3806219870877946,
        0.034934700436542454,
        0.4751611718264387,
        -0.17021065736637475,
        0.299247419841678,
        0.13798599590691207,
        0.2620594872751336,
        0.15794747552582733,
        -0.060492202961844654,
        -0.26502294089383827,
        -0.40643098325426463,
        -0.38675469443710364,
        -0.39907378753799894,
        0.2673499393533436,
        0.3373133122046096,
        0.31761685705441767,
        0.3847971625246096,
        -0.14123148513602324,
        0.1740881292543922,
        0.3202799551517206,
        -0.36769576082068234,
        -0.49965160030603806,
        -0.29034415453685536,
        0.4157638475617236,
        0.3076725484222771,
        -0.37035765645696395,
        0.3471740639497004,
        -0.3253482614746137,
        -0.2333181096516358,
        -0.3318519683376535,
        0.3839396565417388,
        0.3280675881026375,
        -0.4350814679733874,
        -0.4761726325600153,
        0.2912337077331346,
        -0.10631132672642074,
        0.06842278729051532,
        0.13810977842475247,
        0.04359733100468399,
        -0.3120046043766508,
        -0.18966752803768216,
        0.0974464233771214,
        0.28428631768979973,
        -0.1617819071332688,
        -0.4773391510130288,
        -0.35473348715816466,
        -0.2151149967296191,
        0.46117340922328987,
        -0.07302412977839057,
        -0.002506002448746658,
        -0.07727792065097205,
        0.36610146462289905,
        0.30063508429670394,
        -0.34604265414063595,
        0.16607319598900572,
        0.049879671799962555,
        0.397513894954988,
        -0.43726902865636585,
        0.07829043988206019,
        -0.3101804599112369,
        0.06934401183084205,
        0.31717448578606666,
        -0.06597295618697219,
        0.03479871853384631,
        -0.1348724285170002,
        0.44483476006190203,
        0.36241007757326327,
        -0.41030914754183334,
        -0.4572682683249969,
        0.03493320886654805,
        -0.18854114635805486,
        -0.4687647133452236,
        0.17520734694328766,
        -0.3438147168210822,
        0.1438237095275975,
        -0.4013884143666624,
        0.21392561533123722,
        0.3374502615018383,
        0.2971722389105158,
        0.3829522838629634,
        0.11526482838643126,
        -0.166241231099456,
        -0.3175595950862621,
        0.15785254839587382,
        0.4742608251320932,
        0.15807625413175896,
        -0.3960673355511527,
        -0.4564947916865908,
        -0.34776339190815375,
        0.3028942916092726,
        -0.3640614019181061,
        0.20592500762138344,
        0.08372940348060953,
        -0.13520915426234426,
        -0.07919839988804411,
        -0.23680624154454333,
        -0.0890255805508201,
        -0.31597139288849974,
        0.029139852860319837,
        0.16081784610856265,
        0.04974284836369858,
        0.4913272921358579,
        0.4250386730013339,
        0.39028101101775836,
        0.10390724025104148,
        -0.3559740966577494,
        0.25889161673796024,
        0.4435364727963449,
        0.10062176064499528,
        -0.04595369167362473,
        0.15524617766060766,
        0.12692101894726193,
        0.3276777606548922,
        -0.020599342663207065,
        -0.12833637523458252,
        0.308001576013212,
        -0.03460099269841099,
        0.1478904242823934,
        -0.21578338121252172,
        0.038505135205342156,
        0.06267419455723333,
        0.08650099972080894,
        0.28609649070166054,
        -0.1613753721216179,
        -0.33081737131120903,
        -0.12510598411867357,
        0.08592762125155928,
        -0.009170280380349283,
        -0.12754827175766803,
        -0.07862501097248453,
        -0.3227977163770932,
        -0.39527887868210854,
        0.1573078752908602,
        -0.42716261571996805,
        0.07381783711682666,
        0.47530117732134347,
        0.006480274197686264,
        0.21281534507448585,
        0.26353821856141313,
        -0.011888884506093711,
        0.025682648688210796,
        -0.2682707840233952,
        0.12713615444083814,
        0.025216344725566664,
        -0.1647520190827293,
        0.43777706924618287,
        0.13162941369543935,
        -0.08374153982533228,
        0.40263803972354917,
        0.2634287301346113,
        0.47008586129113017,
        -0.16215735915233886,
        -0.01911161708492437,
        -0.2647220112225851,
        0.22879584664672936,
        0.34063147792769555,
        0.19085527595708474,
        0.21117599139959364,
        -0.3562884228749955,
        0.43329437852293273,
        -0.3596968490841229,
        0.3072370637137235,
        -0.33275944228870835,
        0.18589195161619287,
        0.24435240633228716,
        -0.3211721273407976,
        0.05816254675961219,
        -0.25097525485879735,
        0.4528134737463768,
        -0.3173527436557352,
        0.4829566589437697,
        0.00013334057187330828,
        -0.49475903458448345,
        -0.3442334735640099,
        -0.14981792876757372,
        0.176700037009483,
        0.13845963357959978,
        -0.27519661138289775,
        -0.07312306950588221,
        0.34865615426805496,
        -0.027618770328840192,
        -0.18141990119754647,
        0.13786919734909953,
        0.3647903085979698,
        0.1972139186281714,
        0.4802989015528092,
        -0.056589279593210584,
        -0.4855321860935369,
        -0.46199413602283,
        0.4718195524266623,
        -0.13486245035889954,
        0.2783115747445438,
        0.4706254951683604,
        0.04824572574306096,
        0.17336491437038382,
        0.062079887659137745,
        0.2294904870438843,
        0.32217714629021355,
        0.19518781707549815,
        0.16557341243000567,
        -0.4673387319992913,
        -0.373329329093011,
        -0.051215013844274515,
        0.31569389013328253,
        0.3364653845794201,
        -0.07143271238090909,
        0.33792706589584187,
        -0.15181102643862554,
        0.14902709371699407,
        -0.37496554650986225,
        0.45448302429294263,
        -0.14353948425954133,
        -0.18923963104082908,
        -0.4285067815632144,
        -0.2941732123863975,
        -0.45309186638816523,
        0.05840595162315565,
        0.4767737054608364,
        -0.48994742631952914,
        -0.013932149742453825,
        -0.0795652091526251,
        0.20427497103480374,
        -0.43588545323484074,
        -0.3115642057102106,
        -0.15090985425647263,
        -0.1709103010745162,
        -0.08530047731764656,
        -0.011697544776167024,
        -0.10408093725707357,
        -0.14092528440305507,
        0.4382311059204177,
        -0.3974876687231854,
        -0.24284041606159312,
        0.1924160951454208,
        -0.13181120771980426,
        -0.3099787452637951,
        0.3655334194406802,
        -0.07774885879369964,
        0.145306748558937,
        0.4214573312438814,
        0.4290925765811734,
        -0.06322917379791948,
        -0.052622670571271346,
        -0.4596243544324332,
        -0.44845153321386844,
        0.43618120475951394,
        0.4466918595694057,
        -0.10742115693968701,
        0.33320725593083034,
        0.23159000525125517,
        -0.13221953549105836,
        -0.4368924995279724,
        0.10569074888102248,
        -0.3789069129007826,
        -0.05560719674947845,
        8.724869303589067e-05,
        -0.46703024338759946,
        -0.2953806534121143,
        -0.21299673381389783,
        0.20292802368895513,
        -0.34829321265376,
        0.10496949010855416,
        -0.13930133561498725,
        0.03439310009853169,
        0.3656676414196163,
        0.11563390844246879,
        0.3383758005180786,
        -0.2920102228956256,
        -0.2592771224659516,
        -0.02413368554329054,
        -0.2783626925288665,
        -0.1878447837337146,
        0.276560874005112,
        -0.303114284101503,
        -0.01769150205778347,
        -0.16918104532338418,
        0.12644265925084586,
        -0.036758066657977095,
        0.4100186993902468,
        -0.06364227295162417,
        0.41350357453103204,
        -0.4206752281538867,
        -0.1063467348639009,
        -0.034012213473930464,
        -0.4014562151844071,
        0.37154485740230725,
        0.34432221444027244,
        -0.1172309401167223,
        0.06380095044294898,
        0.03039234972981375,
        -0.26685159821633975,
        -0.4426382619067085,
        0.19616268140258208,
        0.28994398943508704,
        -0.0558542409756807,
        0.1095140894704355,
        0.10739766981500021,
        0.2770760006499985,
        -0.32503171333308445,
        0.02027209280017206,
        0.40804140789451215,
        -0.08275672936438316,
        0.2364959566121796,
        -0.41710321915714244,
        -0.11442132631158142,
        -0.4368227469306426,
        -0.034210214806957184,
        0.13267337484138553,
        -0.3651279733442887,
        -0.3317641739227545,
        0.19960485091735936,
        -0.3716443021615269,
        0.46465565984670176,
        0.2983811147832106,
        -0.08404700342951354,
        -0.33969083089989816,
        -0.23177324520907638,
        -0.2679931475724556,
        0.31648556289214735,
        -0.20329654074259462,
        0.08808131213548975,
        -0.4508140999811988,
        0.3672834061763963,
        0.42945966811439795,
        0.26789086454964917,
        0.11111270224561665,
        -0.4742512093416832,
        -0.3415380658828274,
        -0.16696156097464276,
        0.1658099874968575,
        -0.3387270023987712,
        -0.4604867912786842,
        -0.25662399797672697,
        -0.1525703354513237,
        -0.41643004734252953,
        0.41278816358619597,
        -0.06487226358025011,
        -0.4054962845065382,
        0.05626169237631051,
        -0.449275287940733,
        0.1570713016170764,
        0.1544644840212468,
        -0.08554999611573522,
        -0.3442271110600795,
        0.17190210749849666,
        -0.32917328588243433,
        0.26483358538035917,
        0.08190065152043491,
        0.2379006475196298,
        0.45708294229616353,
        0.11548398053265696,
        -0.18908674692210248,
        -0.06812720205243328,
        0.10101458549294273,
        0.414426077675064,
        -0.35629030918746507,
        -0.27117291614887684,
        0.2440070038439679,
        0.29061035395441703,
        0.005769812660341933,
        0.48935384064527476,
        0.08754484133691365,
        0.4437031655879874,
        -0.3026582288827163,
        0.02943384773036395,
        -0.2676068879767174,
        0.3961589764420458,
        -0.3812979378220025,
        -0.19735039302595292,
        -0.3227832935691509,
        -0.4836890734818008,
        0.2190117222529474,
        0.12704580221985484,
        0.16846312139304143,
        -0.26869770472859356,
        0.13770755231898968,
        -0.2682596833041856,
        0.12041039341540649,
        0.4196027570818055,
        0.49513286998370254,
        -0.4220042542325214,
        -0.23174796811119236,
        0.0616625793060408,
        -0.23398639085836914,
        0.4653643529971738,
        0.11733231100670971,
        0.4818402989963889,
        -0.4911487798380062,
        0.2117623232003425,
        -0.4094733788813971,
        0.012936572004062619,
        0.47712053722348635,
        -0.42899612944190824,
        -0.03508499023916456,
        0.004756488442711704,
        -0.06393642317847481,
        -0.1898745365750365,
        0.26066453345782115,
        0.1371093170672647,
        -0.3585758263985359,
        -0.16585837209783594,
        -0.05894721439225725,
        0.2484601790609321,
        -0.03223084769623008,
        -0.19759662362668018,
        0.19657164435878005,
        -0.02016992873785517,
        -0.1492146225814016,
        0.3511407384605837,
        -0.2692151742091373,
        -0.14158690750598235,
        0.4257244669063077,
        -0.2455043549284499,
        0.07416426783092989,
        -0.40773235929387097,
        -0.49080784884152895,
        0.21367561330463014,
        -0.12581334386855547,
        -0.04979017788593432,
        -0.11260077990158535,
        -0.32161467343365735,
        -0.32056166493415217,
        0.17520518848552447,
        -0.293012948921868,
        -0.04688339117309115,
        -0.3563590808510506,
        0.27803612258477095,
        0.04840338411816125,
        0.23681343947246447,
        -0.07169020643903423,
        -0.12240174292783412,
        -0.2416254207987183,
        0.07303830509063347,
        0.3359068995716279,
        0.4722637144318673,
        -0.10450055051909202,
        0.2024573268951485,
        0.18727564552654996,
        -0.49434030274415997,
        0.4210876988690956,
        0.48375683631582245,
        -0.27454322819495425,
        0.09780614249087893,
        -0.3452340516235304,
        0.09906859952128133,
        -0.05519266571124215,
        0.2132580176856228,
        -0.17967800073673368,
        0.21126879009411537,
        0.15259099354038308,
        -0.16322653402287368,
        0.48243233314182044,
        -0.4458433297467683,
        -0.4771470557188915,
        -0.36672381458119563,
        -0.22913502020879917,
        -0.00846931947542573,
        0.1697240454689729,
        0.15332918549205377,
        -0.3408077415678431,
        0.030690000394706818,
        -0.32692180093874657,
        -0.22349107426979864,
        -0.09868923912151151,
        -0.02558746892003061,
        -0.11832484928306441,
        -0.08061923638249935,
        0.4736714942850776,
        0.19400288656787312,
        -0.17494800840528535,
        -0.3648773724208726,
        -0.26781247749491355,
        0.2689874577385145,
        0.49964833743256765,
        -0.19782421817423135,
        -0.40771963515472975,
        -0.13356301808403093,
        0.4644738690365041,
        -0.22223194732758333,
        0.26567151738164485,
        0.04346055346148747,
        -0.018659549808917486,
        -0.4597204025434175,
        -0.26082953700248535,
        -0.03569621020207381,
        -0.07197795637645954,
        -0.3970638773024442,
        -0.005675553972091962,
        0.4095119450859046,
        0.12117261319043549,
        0.12182724410757229,
        0.28522644470232306,
        0.4767992186932155,
        -0.3687366400076413,
        -0.3069769053003608,
        -0.48012749337697047,
        0.4594376390124155,
        -0.42759731031582415,
        0.037861589373155535,
        -0.019718918669758945,
        0.1265751160423937,
        -0.20893925698009164,
        0.432479673562317,
        -0.17570988982438096,
        -0.10771776880470574,
        0.12778413779186415,
        -0.30119163903310997,
        0.12220299403020496,
        0.3265417977606444,
        -0.4650886977934455,
        0.17763578531690438,
        0.38170681293277453,
        0.12631750750810145,
        -0.2006872797039171,
        0.3608245884660981,
        -0.21306355195518745,
        0.038867010319332373,
        -0.10891085624137675,
        -0.3736133035476227,
        -0.34737113060809444,
        0.4497946081468259,
        0.1338705884860688,
        0.45704790476537405,
        -0.39364371734155656,
        -0.061976165664580085,
        -0.4438262826769911,
        0.25136976704509106,
        -0.13005730052213582,
        0.25786668693977255,
        0.0645808282637188,
        0.14812738912633916,
        -0.10926435920994848,
        0.22570441494551707,
        0.249348650418605,
        0.15572896678962367,
        -0.3287181136359746,
        -0.3040880872045779,
        0.26836187368222086,
        0.35941786928549635,
        -0.19685950397034968,
        -0.08805606330962534,
        -0.057193341938440945,
        0.12569368116746427,
        -0.2973231852885777,
        -0.16942608891656763,
        0.42254533232277924,
        0.08351436034879955,
        0.26591980216053923,
        -0.24555282361172714,
        0.12611501280639115,
        -0.13089309253290438,
        0.08439309423512975,
        -0.3417945246602482,
        -0.0029318889660415737,
        -0.4350739743873978,
        -0.36712513756547605,
        0.13975690629252846,
        0.2403758320918814,
        0.16659853131038138,
        -0.10662286966817591,
        -0.006982068389164597,
        -0.2890508755356782,
        -0.1714608071360929,
        -0.29048438630566176,
        -0.27171992383035737,
        0.37253146331239007,
        -0.37303153975235614,
        -0.25247504237734,
        -0.3632004043562562,
        0.08226759369494496,
        -0.1175153674295073,
        0.24866914890987957,
        0.4212710336258926,
        -0.43615254209373167,
        0.4705436574911358,
        0.09255798880148336,
        0.2059543177935813,
        0.39858805557346555,
        0.45592179826793167,
        0.16813477247975261,
        -0.2531289901306739,
        0.36285490914003315,
        -0.15868818508477556,
        -0.2962272564168563,
        -0.10835506471015799,
        0.06236073347107007,
        0.4092084993757983,
        0.03756539505052636,
        -0.18902584427186842,
        0.2745297281464334,
        0.4788104441213944,
        0.19304099068884928,
        0.33967852276632715,
        -0.0765928315017591,
        -0.1727092547308139,
        -0.14222777236115802,
        0.22423886197783038,
        0.0830769813160871,
        -0.4625921161092491,
        0.2588922190474723,
        0.13918707029269017,
        0.2773292322314682,
        0.4830925224851187,
        0.21536699019252203,
        -0.4815579168669799,
        -0.48157041799312217,
        0.4343715212864817,
        -0.4429788485063598,
        -0.43731528398606345,
        0.21580845081683597,
        -0.40458985319475693,
        -0.16418862605530826,
        -0.30961102336297275,
        -0.24448983935980728,
        -0.3102706987291748,
        -0.2536988150897612,
        -0.4769853350799642,
        -0.42998807499653513,
        -0.282634142957521,
        -0.1704186681459987,
        -0.3621018328342801,
        -0.3352217246927258,
        0.45360017938758,
        0.2418845257071841,
        0.08088919510177095,
        0.17028487192124586,
        -0.2621343946832062,
        -0.0771739921799256,
        -0.0386220659050468,
        0.16011143283874996,
        -0.14897973949199705,
        0.3700870771784589,
        0.3756764685531716,
        -0.3573283931965153,
        -0.048890645918183484,
        0.03339152210190277,
        0.32097377297109764,
        -0.36010154896168534,
        -0.2770360987987258,
        -0.33592997427931925,
        0.3707840216938747,
        -0.23423706913757603,
        0.12404591073416082,
        -0.40502612112340763,
        -0.2650129273224693,
        0.1813663859450515,
        -0.12734106989631588,
        -0.13718240729998077,
        0.3785682999752946,
        -0.26093910251487995,
        0.41696209692808084,
        -0.4858898162573626,
        -0.43653802050407875,
        0.23841205022095013,
        -0.22036594838751367,
        0.27210087828689344,
        0.19171799361786324,
        0.15151841784206033,
        0.0164355963201962,
        -0.25476733321147005,
        0.3510237584590693,
        0.41427802641721,
        0.3602042691275821,
        -0.29065412613968866,
        -0.06313488270716472,
        -0.46128340010462243,
        0.2823672128336685,
        -0.4448543426656951,
        -0.3920433588264164,
        0.4002282654763951,
        -0.10924989583384337,
        0.023358068161218104,
        0.19939354456490577,
        0.21734939318178337,
        -0.4895104473998566,
        0.04941140655467313,
        0.1634305432711778,
        0.461983653507935,
        0.2276854582468093,
        -0.34734139495141336,
        0.45356789006681997,
        0.3571620202062712,
        0.06705207499750354,
        0.12304548822765915,
        0.07911347330387053,
        0.1960996933475848,
        0.3550240565817532,
        -0.43703117272109715,
        0.4384970431315618,
        -0.0531159936023462,
        0.3653162277486719,
        -0.22551693133335926,
        0.0013827016743286347,
        -0.23816414616262638,
        0.1657261232209848,
        0.3008481537288704,
        -0.036865917305579865,
        -0.3771779304271552,
        -0.03541118153190137,
        -0.3621240497892929,
        0.4903205930386041,
        0.12143450910724685,
        0.03710186424041073,
        0.09483122540207467,
        -0.1906403486935455,
        0.24048222274607067,
        0.40218441430650087,
        0.3839866332562337,
        0.13270772727425995,
        0.36976981115758323,
        0.07522813931806693,
        -0.211155472925025,
        -0.30154991315419044,
        -0.27577267748504,
        0.14799223433992148,
        -0.18539896553791968,
        -0.4064388165533951,
        0.37534273315739597,
        -0.25192458595706346,
        -0.10487628553334338,
        0.19936122290248282,
        -0.19052372632665115,
        0.036418339297825675,
        0.41328597466295847,
        0.20507377347756783,
        -0.21890413262797048,
        0.37776301466136275,
        0.0914537724033091,
        0.2331909464259483,
        0.22545411830916806,
        -0.3924666610415545,
        0.18298614120033485,
        -0.36120166271582155,
        0.38605354300630457,
        -0.36123685563429553,
        0.17112885404273648,
        -0.03892527727256512,
        0.4570619174942281,
        0.3609790792804034,
        -0.22583480819997692,
        0.301825391112886,
        -0.41486004666132403,
        0.1122862246840628,
        0.3385960950262925,
        0.43268476636372066,
        -0.1621321429543392,
        -0.1841248502763141,
        0.1865886482374609,
        -0.20434267015014962,
        -0.2530255175000343,
        0.4781318595564479,
        0.06690354458811332,
        -0.4460072302296616,
        0.02444135690729765,
        -0.12904712985962918,
        0.2722864435508605,
        0.13096707340249336,
        -0.23806908083520884,
        0.3443827943756419,
        -0.20604565395624108,
        0.17012147263769062,
        -0.28468074309076863,
        -0.4287166654323652,
        -0.2821156913617078,
        0.17910964167458754,
        0.012239633982691456,
        0.18450226113641666,
        -0.368568283963423,
        -0.31550516722143485,
        -0.41907730397796406,
        -0.14350824935655893,
        -0.2646075754015723,
        0.45103280044877025,
        0.3143322650260134,
        0.25225332497665354,
        -0.49221244983407986,
        0.0037585170360942,
        -0.4922929267688063,
        0.21618562357072857,
        -0.0619421121788396,
        -0.32896142591663213,
        -0.20381647115786938,
        -0.20058670811557622,
        0.4544559477311163,
        -0.44410746003688384,
        0.39459068504033334,
        0.4784522501451869,
        0.38378427507070734,
        -0.27437345683487024,
        0.3551785278309376,
        -0.13572154720706053,
        0.34212512500107806,
        -0.35758614633030306,
        0.4859919207043881,
        0.3930939126251325,
        0.24558995415959495,
        0.33033341828617957,
        0.07436755347435398,
        -0.306595163307267,
        -0.040279240683299355,
        -0.3316585941454313,
        0.3129308488377872,
        -0.35223434028827727,
        -0.3547363864028965,
        0.46262508470581754,
        0.05358150492570901,
        0.047864682354596955,
        0.034201285525264025,
        0.01819954817320868,
        -0.44078960359668495,
        -0.4100049045517571,
        -0.03511926571800639,
        -0.020863453531955622,
        0.3205575641022267,
        0.46845871784937443,
        0.3378267327447141,
        0.011802206625692757,
        -0.3181370072525983,
        -0.07832942997855386,
        -0.01324228872367783,
        -0.47522807236728604,
        0.19315803034598988,
        0.488915909866552,
        -0.2422400175592101,
        0.3918730812889445,
        -0.11629636138312127,
        0.13139496254265093,
        0.2434453703759324,
        0.07634320869253841,
        0.03584987805597872,
        -0.3266705483193838,
        0.40345436552350944,
        0.2860402925162876,
        -0.00046187625153348844,
        -0.0975704427948163,
        -0.36076798801429877,
        0.1099202669936522,
        0.2844605891387557,
        0.39535204721356143,
        -0.04009818494753936,
        -0.21721349032901482,
        -0.35813316849982035,
        -0.38789441608316266,
        -0.2742699622921059,
        0.0847613697632148,
        0.20187915358926978,
        0.3801196670209043,
        0.38981390896961676,
        -0.1288993904638044,
        0.22212660329781952,
        -0.2968055658247595,
        -5.8696000037050666e-05,
        0.4634987835616392,
        -0.09137754860866787,
        0.2647419337255096,
        0.25536931832184007,
        0.3211800672522116,
        0.09754420681264298,
        0.2532210867442507,
        0.4551182424865077,
        -0.04595804049223251,
        -0.29340643543927425,
        -0.11848334878368139,
        0.06785372310624249,
        0.10292861891222749,
        -0.15416906696731114,
        0.15377599142654685,
        -0.3023451414401491,
        -0.280557144244754,
        0.27891428641469995,
        0.1415179286492626,
        0.30910096150342636,
        0.030918977594527774,
        0.24336699546328977,
        -0.3265697415331299,
        -0.08761046613633527,
        0.25440987690468864,
        0.2471791034638685,
        -0.3128806011039855,
        -0.3969507142520613,
        -0.18799582452097785,
        -0.23941396597716524,
        0.1657625293871119,
        -0.48577770347693383,
        0.16682739847881334,
        -0.09311982265820551,
        0.3197879335918996,
        0.14991660844289367,
        0.35358876994045374,
        0.06843146913076326,
        0.45628570368558197,
        0.48784658883345877,
        0.45813961695448524,
        -0.11210974192223577,
        0.464399939331818,
        0.2762949629206065,
        0.4424712143282413,
        0.4171447190049846,
        0.17195047503251393,
        -0.13696834290820536,
        0.4012138004146728,
        -0.4462229408118321,
        0.3519009264891164,
        -0.49469902435692914,
        -0.09339052445243634,
        -0.32630629385332355,
        0.15192621891978408,
        0.43282500729634155,
        -0.2782647065070195,
        0.16297889028524748,
        0.0891562905240384,
        -0.23413610777966243,
        -0.3377757645523105,
        0.03600982702288891,
        0.020824435926153684,
        0.4977174092448372,
        0.049116842742569666,
        -0.1987599932603641,
        -0.21584631957699385,
        -0.4702434342086992,
        -0.4359170456198894,
        -0.4401312592815545,
        0.2291381588969763,
        0.4431851600090093,
        0.40694312060069837,
        0.041062811146622025,
        -0.45660174241214746,
        0.46549469903565954,
        0.4954961608986719,
        0.008083028254662783,
        0.11125023260455347,
        0.018427446817585902,
        -0.3726405480208953,
        -0.23478838142905634,
        -0.16412897745857336,
        -0.08457632904937051,
        0.12422359124111049,
        0.05830417715323788,
        0.39439107323225286,
        -0.2850268264525586,
        0.07774672998946108,
        0.475906799809766,
        -0.2541001214136608,
        -0.3310244238228802,
        -0.22965603757308362,
        0.11781910433928744,
        -0.447635561351421,
        -0.16188183214760443,
        0.019546700388983096,
        -0.46848121883456173,
        -0.019114791345426152,
        0.39486302904603765,
        -0.13437091787182276,
        -0.14405924550396765,
        -0.17669987779161256,
        0.0499544887511113,
        -0.13589236237445823,
        0.09837845691306402,
        0.2334473881635084,
        -0.3841418129202674,
        0.1729999529586581,
        0.4044818400263047,
        -0.3217584795817705,
        0.4770657146438436,
        -0.24561156190543842,
        0.012313877805657292,
        -0.1651674813527303,
        0.16675708244599163,
        0.1617639083412895,
        -0.027512592929693214,
        0.20770922705792838,
        0.2500145946405863,
        0.06129044949249607,
        0.07164481449686755,
        0.37263141509779096,
        -0.17649155342970102,
        -0.006890887291400527,
        0.11370398363321188,
        0.36287005048587917,
        -0.07561283783186257,
        -0.14439035387424615,
        -0.006052885289242971,
        0.3540389542010475,
        0.08632845890587093,
        0.14462409243937924,
        0.3971604286062532,
        0.0544905598472214,
        0.03229898116135488,
        -0.20869958432616098,
        0.41678419644802056,
        -0.006354137743619259,
        -0.22595882946950197,
        -0.3821891462489603,
        -0.32249831438505183,
        -0.006170687397624053,
        -0.3555555644548769,
        0.17368607690879867,
        -0.13875675421614841,
        -0.43162892288913857,
        0.2943746273533069,
        0.3542177991179021,
        -0.14376429410827063,
        -0.06268239683856214,
        0.4643390843683438,
        0.16609564910658303,
        -0.06835912127281929,
        0.20629407048166215,
        0.45705604329252636,
        -0.32589383784574844,
        0.41000936846820224,
        -0.26111092373721634,
        0.4910438672733892,
        0.023022548555763578,
        -0.32044215465857184,
        0.14521159745213086,
        -0.4957815632716146,
        0.45182205399316067,
        0.488822945636596,
        0.27843054472558937,
        -0.25435424344073054,
        -0.4638488997717096,
        0.22861432895858091,
        0.4013666900632944,
        -0.021819540792458292,
        -0.11884908866161703,
        -0.3158890506489339,
        -0.4523434181540207,
        -0.07088565136103953,
        -0.2632183368574035,
        0.018593096164365885,
        0.31302768940221093,
        0.11108787259183439,
        -0.43514872512972513,
        0.13420763605803354,
        0.03592992623940061,
        -0.4822781044913067,
        0.231163238096198,
        -0.41138355917720837,
        -0.34567698331318075,
        0.38205101902827754,
        0.20894092648554696,
        0.31977165135954533,
        -0.09001470018791624,
        -0.44567203482799067,
        -0.2716035167465064,
        0.12930267428009556,
        -0.48209075734248175,
        -0.11068874024434316,
        0.3404951237075097,
        -0.3106392755413796,
        0.017382701919648524,
        0.3626351342581928,
        -0.41786518780161486,
        -0.2040027782253636,
        -0.4454385384857533,
        -0.03160960391455914,
        0.03926892499736012,
        -0.04055265721623724,
        -0.1884465740375757,
        -0.4078313847432061,
        -0.07917945470053489,
        0.2440494221575471,
        -0.26549918121925076,
        0.09890313385118732,
        -0.07600211090839892,
        0.0017872691364752002,
        -0.11954071129264643,
        -0.14776509900881296,
        -0.14605170412024182,
        0.14056462840418238,
        0.253771675925173,
        0.3257464529189583,
        -0.11824112576349521,
        -0.41725913087705124,
        0.01903001421496886,
        0.03778246322437473,
        -0.182971397633777,
        -0.009734393540172581,
        0.0655915433900427,
        -0.42384948913442744,
        -0.15629702136936607,
        -0.46944212776240435,
        -0.08455436374053726,
        0.23846595526798875,
        -0.12425726851815944,
        -0.049366567111329585,
        -0.21756239750607498,
        0.26534481921004016,
        -0.12841304454950075,
        0.3163300269045499,
        -0.016127907560614774,
        -0.27434338198520414,
        -0.030694973945131876,
        0.1596316276283155,
        -0.4193469414407247,
        -0.18507529618080332,
        -0.2974864634169675,
        -0.4240092789668576,
        -0.2881700865365403,
        0.05204628662271693,
        0.07493551023808542,
        0.37408818300702784,
        0.20171989447344707,
        0.37188102623135977,
        0.22411176590362203,
        -0.022451156698599317,
        -0.31551415884330125,
        0.42636218169684237,
        -0.43798834828336186,
        -0.04701206053368723,
        -0.1922601752479277,
        -0.10209369274550761,
        -0.3639660453332242,
        -0.3158357970857436,
        -0.22010497275705498,
        0.4276191229726255,
        0.15870118780474562,
        -0.3958900813207765,
        0.394994632543635,
        0.41016064261967133,
        -0.4290733459605175,
        0.46957632070891253,
        -0.1692233643259724,
        0.4303988232606998,
        0.10957735489552134,
        -0.12107933426608686,
        0.4816850013529591,
        -0.19095035709903352,
        -0.28742509680449124,
        -0.4142558552909166,
        0.34633831873299603,
        -0.3596670198348034,
        0.2783268643570822,
        -0.22805173264304546,
        0.3268802158629419,
        0.49687695259329356,
        -0.4513477154332459,
        -0.3773991448937082,
        0.12039816725211572,
        0.3082498296981535,
        -0.447093748922196,
        0.27110526137552104,
        -0.3714185924869816,
        0.15131841548144165,
        0.14931840910394067,
        -0.4350649646805781,
        0.30867918074346157,
        -0.07209145935123829,
        -0.21013579477338318,
        -0.48832971658893964,
        0.18418813904734577,
        -0.3059010716300319,
        -0.15724966924675798,
        0.42049635619226455,
        -0.22816292403064575,
        -0.12688764664454932,
        0.07816972836034008,
        -0.07896207552875378,
        -0.03411429176122438,
        0.018136501825594675,
        -0.48224665387515,
        -0.07658376323848959,
        -0.4502281010084006,
        0.1687182545782826,
        -0.24684901221797428,
        -0.3405310784306589,
        -0.1574434982466485,
        -0.36805979329431715,
        -0.36035733542812143,
        0.1170874859381893,
        -0.19073600180447203,
        0.4814716490759099,
        -0.0865897726289725,
        0.028236622026607594,
        0.31640884922677703,
        0.05588964032548194,
        0.34259890488563327,
        0.016133397188785925,
        -0.14281303245991983,
        0.3633448508890649,
        0.2514621383162763,
        0.21892495103665288,
        -0.25835598220878764,
        0.24145213349261552,
        0.46193602214908236,
        0.17597425742239658,
        -0.32520514875154616,
        0.31182960760682255,
        -0.4561630625344878,
        0.14312788866809845,
        -0.43258069585530445,
        -0.3747972085638631,
        -0.2765889337977827,
        -0.04517026126141588,
        -0.4050506814664314,
        0.42174223623266927,
        -0.2676898126617583,
        0.38747943568840726,
        -0.45919910061979285,
        0.10216347836900286,
        0.016763842131966467,
        -0.37009204051289024,
        0.17183547550019584,
        -0.10596411911325065,
        0.09184087233258365,
        0.11252729742003664,
        -0.003567411113596153,
        0.3428025471855741,
        0.3942455803915521,
        -0.024608055967730635,
        -0.13013804820870656,
        0.2942598906605276,
        -0.25899778526228123,
        0.1956527612622524,
        0.16191430064681267,
        0.2548873750974934,
        0.32901086968587046,
        -0.1333652858730484,
        0.11225257841863279,
        -0.4405680619000144,
        -0.4823016998194075,
        0.3808257617634174,
        0.41030665694333823,
        0.06287409020233836,
        0.4197858398432528,
        -0.01797595421237197,
        -0.4651165091354331,
        -0.022817844971693257,
        0.09910363551407808,
        0.03189940994651952,
        0.18663826869416267,
        0.23215854181444162,
        -0.183954936537714,
        -0.2594610046467438,
        -0.23968116528240446,
        -0.13275985536009793,
        -0.37379896617727815,
        -0.0903809613724802,
        -0.47920838014039324,
        -0.3257608937428207,
        0.368110250264294,
        -0.4907473290223743,
        0.24525234588104916,
        -0.04399524156684387,
        0.012866973662594039,
        0.42444880283190245,
        -0.3351867614632099,
        0.13179534492307632,
        -0.1067168147179599,
        0.38499894483397445,
        -0.13392219910506986,
        0.115117764571942,
        0.35934588666741507,
        0.03365712585402014,
        -0.13744824538522005,
        -0.1651347773317774,
        0.21563043902155554,
        -0.2059235581433102,
        0.027539930435863558,
        -0.1757920641815639,
        -0.1810601910781423,
        -0.22523352601895874,
        0.25976332767783605,
        -0.1187162492412297,
        -0.3032017964705911,
        0.06348496048828767,
        0.09465849118437142,
        -0.4705116470475298,
        0.4833577438084893,
        0.4325947961266513,
        0.32114627449648503,
        0.3137930936930269,
        0.2780137778464028,
        0.29427873698554396,
        0.20914293284402308,
        0.4979084495185244,
        0.4803690171371805,
        -0.20144138245101317,
        0.2735058261011899,
        -0.39685428692470426,
        0.11696925741374375,
        0.3665972065817976,
        0.2634726877271252,
        -0.22032030052267337,
        -0.14169189330540033,
        -0.024689247764622557,
        0.48386807042646607,
        0.05134326785599175,
        0.46452468897558696,
        -0.3552141422898243,
        -0.09097229886388236,
        -0.44411645925955756,
        -0.4606361184980243,
        0.3958538965132593,
        -0.08398145689482939,
        -0.4136691203122387,
        0.12330634121606909,
        0.4680772369546361,
        -0.33740391840070005,
        -0.3655531736213036,
        -0.2964975014551501,
        -0.24687632564471584,
        -0.4168925829642376,
        -0.1424312682407124,
        -0.4825338358197935,
        -0.49748786186416283,
        0.12111780289209684,
        -0.010233978711805092,
        -0.3891968981627718,
        -0.05355756284426172,
        -0.2847891476399079,
        -0.17557969745669588,
        -0.25991768890500944,
        -0.42986172706451686,
        0.43393078663609475,
        0.09530018822123554,
        -0.06580266796277401,
        0.47283893628712126,
        -0.2709700296534774,
        0.1654247282186302,
        -0.3984645502828701,
        0.0023783591966083373,
        -0.23426743392590454,
        0.10149214935236806,
        0.47375594063261317,
        -0.2161236910076697,
        -0.18212152953719174,
        -0.36649912980946087,
        0.19883304162599946,
        0.4416631110062025,
        -0.3554724163679619,
        -0.4436212138561849,
        -0.09827862621145089,
        -0.010315991211221287,
        0.14391198545070716,
        0.2461309428987346,
        -0.25297945752246886,
        -0.028809216802735627,
        -0.4263642424887809,
        -0.30968940369973885,
        0.06807891497620788,
        -0.1527390450013344,
        -0.42942890116460375,
        -0.2976639763910407,
        0.2607340101939227,
        -0.013942302142951557,
        0.0807505827215177,
        0.3836471642436946,
        -0.005914569014023652,
        -0.27956233600764757,
        0.3416119349985627,
        0.2731631228286713,
        -0.13666711422817002,
        -0.021838567597644687,
        0.23742349738839075,
        -0.019438339089480783,
        -0.2804394429508318,
        0.21149886727359712,
        0.141600277295853,
        -0.03139906734771236,
        -0.004093905544805043,
        0.391829311891842,
        -0.04127034894308179,
        0.10740349824700712,
        -0.21230456614478943,
        0.30559728289940635,
        0.06737018458462729,
        -0.16647205965743517,
        -0.429443910754729,
        0.09230479047465334,
        -0.4629670973798492,
        -0.47619091216300047,
        0.1904690124879771,
        -0.19108509090366022,
        -0.2975828160915137,
        0.34402463659808646,
        -0.3536808072903985,
        0.4191634096504453,
        -0.4457164577406505,
        0.2794117995541877,
        0.25270881655295374,
        0.23359159725112577,
        0.1327718130204062,
        -0.0392709872092456,
        0.3705337577310681,
        0.318105609105237,
        0.4250118312981924,
        -0.05923080512849488,
        -0.32643412742358313,
        -0.424415839959952,
        0.3996804186676238,
        -0.4652547632381324,
        -0.16198359621662828,
        -0.3293797094414276,
        -0.4947031418285127,
        0.3567673628473651,
        -0.3828497887233966,
        -0.1862740660336346,
        -0.20649247991123765,
        0.4900773453360108,
        -0.40683797666724086,
        -0.2848526040521302,
        0.10287383448276866,
        0.2594039644992895,
        -0.10431881648862384,
        0.11263612982495175,
        0.4900696570053391,
        -0.30091026582766667,
        -0.41786274093465237,
        -0.3856767577028021,
        -0.26224730453483847,
        -0.272920189169789,
        -0.4249308322352716,
        0.13587105171831315,
        -0.45821375084767657,
        -0.1246040039370242,
        0.2780793713357985,
        0.32802814936119207,
        0.3796547736976815,
        -0.06511285686805124,
        -0.1281086474593669,
        0.09412940844645834,
        0.08585780267262777,
        0.27136024455126695,
        -0.3151908780613468,
        0.26004341437618916,
        -0.11368585555148891,
        -0.18565380586443603,
        -0.16635017799094742,
        -0.10864662480899567,
        -0.12774902827464552,
        0.3771870329410322,
        -0.22768457235120365,
        -0.24147408159924844,
        0.28810103202012527,
        0.009646720556907074,
        -0.3380070906434105,
        -0.3829967539077843,
        -0.1122535700239301,
        -0.45481701091977467,
        0.034004190925230104,
        -0.3319605106229714,
        -0.1593255133120255,
        -0.2722676807453568,
        -0.15989829403841715,
        -0.0033207067961597003,
        -0.2746107213089731,
        0.2738451320581684,
        0.3709544154682851,
        -0.16284993683436688,
        0.3059971823143268,
        0.2514848458866574,
        0.2839026235378146,
        -0.23334732937032587,
        0.33951622863302233,
        -0.3791082452068041,
        0.07334489270987643,
        -0.27362693454319875,
        0.09557431366405533,
        -0.45075355783233384,
        0.25977041706719706,
        0.4351579936604333,
        -0.2700699439716334,
        -0.07823431436514305,
        0.22803877177421528,
        0.1957476249407084,
        -0.48751496100483926,
        0.30546576186701047,
        0.038078974562543055,
        0.21953546728637519,
        -0.1728040583391114,
        -0.36072532336112806,
        0.22294209343621096,
        0.04459587440013568,
        -0.45024231286260463,
        -0.1715529832698387,
        -0.2547304084641201,
        0.20362304151751165,
        -0.08751253592647179,
        0.13093113359792186,
        -0.12502284186168167,
        -0.0030416768439180952,
        0.077707475813665,
        -0.2225281309395648,
        0.11416074406302779,
        -0.35601426554821947,
        -0.24572118284290057,
        -0.38970261495045844,
        -0.017084250587264704,
        0.4758669574483019,
        0.03050356768237772,
        0.23487843421032573,
        -0.18635506059803797,
        0.14548303370014304,
        0.06319297733514817,
        -0.27209238976096406,
        0.3987291508761538,
        -0.025612394449659348,
        0.2639029900991354,
        -0.4862968580521593,
        0.14575356999488476,
        0.4526089497103287,
        0.471502906592262,
        0.18051179225236857,
        -0.2823486563493701,
        0.08154285271453043,
        -0.04648902009337552,
        -0.4708347830609555,
        -0.05776242110514396,
        0.15781175567802452,
        -0.36863803445569476,
        0.19454250984089627,
        0.4786643460207475,
        0.04698992337668684,
        -0.1756654798150643,
        0.21120038464904745,
        -0.2539929492969266,
        0.4965943306922286,
        0.18025590300146854,
        -0.3570878882139372,
        0.45675736848970916,
        -0.22931541774455344,
        0.43518836640731096,
        0.41664099025388834,
        0.3274991364001092,
        -0.1789982428363459,
        0.45425312271464113,
        -0.43920754063698975,
        -0.027111576011962457,
        -0.24678130740558246,
        -0.4861537088971052,
        -0.4368313355512752,
        -0.41360808431490903,
        -0.32450751467522343,
        0.1642457425468018,
        0.2363901299338319,
        0.33354605642337665,
        -0.09967097439642714,
        0.10996736724363154,
        0.43055747102305475,
        -0.13797195956098707,
        -0.17820808502715058,
        0.03861711386005584,
        0.2925154120590788,
        0.30877312906589427,
        0.15398628848426454,
        -0.3608588697656442,
        0.32990373679883556,
        0.3667728560310475,
        0.2929183559097178,
        0.3624047780919405,
        0.3281994856146575,
        -0.3693019519534978,
        0.33744424122322536,
        -0.1451045035364964,
        0.09367451174565311,
        0.29803078775729264,
        0.4713033788496206,
        0.2706638023178187,
        0.016904562634327935,
        0.1150408596276894,
        -0.11650494688424018,
        0.2663173791299227,
        0.3248002151081266,
        -0.46665584500473367,
        0.06695123590522112,
        -0.16392815156278406,
        0.49052848456483755,
        0.29156394335392655,
        -0.07076091976992338,
        0.4694835369474374,
        -0.010703744288508066,
        -0.49033100738321367,
        0.18039121411527625,
        -0.1102257689786702,
        0.1451974403435421,
        -0.27473604608343705,
        0.2558460182024396,
        -0.05562433391587329,
        0.2806209088742929,
        -0.31783982526667165,
        0.09143492023293864,
        0.30487153176705006,
        0.1374705603336953,
        0.1617436942604228,
        0.28935612444375736,
        -0.24061863696342256,
        0.4822487813458525,
        -0.47837026517215664,
        0.2365999554363889,
        -0.4056575677399389,
        0.20711325047417672,
        -0.2950357684962581,
        0.38249552320635527,
        -0.47246561237291795,
        0.1324486877053518,
        0.2789314933680661,
        0.025060857333953357,
        -0.06882783627323619,
        -0.3138161185401933,
        -0.45424061537790583,
        -0.36547692264281983,
        -0.2786217369836207,
        0.22226470567317935,
        -0.3419954178989384,
        0.014482698442521369,
        0.15006509947165547,
        -0.3699849903261767,
        -0.2740514492228747,
        0.08430567628462693,
        -0.2649619560908827,
        0.12092845806655284,
        0.31173446086171575,
        0.37861158480591495,
        0.4408742525524114,
        0.1493281743694186,
        -0.4494154674198928,
        -0.28398621849623684,
        -0.020606594549258728,
        0.4840538332176245,
        0.23104454661122675,
        0.10662040332536438,
        0.49194878360212524,
        0.25691799185385467,
        -0.2344961019657641,
        -0.3315496308970126,
        -0.27516327881525826,
        -0.051544402380848786,
        -0.019174224040511834,
        0.043656562905440066,
        -0.402784533566127,
        -0.017977210160065038,
        -0.12966888563847268,
        0.07860641467764362,
        -0.39162363261657873,
        0.29816812309991625,
        -0.24744814043858532,
        0.20450659477837696,
        0.35450883050209736,
        0.01534547442992329,
        0.3595277515330293,
        -0.49250717463970184,
        0.4015218497045535,
        0.253196441990594,
        0.38692765112156635,
        -0.25550724878885656,
        -0.34383621723250546,
        0.0033446337975820972,
        0.29220066915202236,
        -0.0898104936464903,
        0.20919044535055176,
        -0.15284325869706583,
        -0.37981170734518743,
        -0.16353568841221255,
        -0.4018179162327751,
        0.39469089573500526,
        -0.18023737675977725,
        0.3071983916073606,
        -0.369042950939681,
        0.44407877416084673,
        0.29434768534565314,
        0.1701701196760662,
        0.2784680372845939,
        0.43125847314703014,
        0.2391685560832214,
        -0.07021065407099325,
        -0.47733678601976437,
        -0.05716252229671226,
        0.22053054082017776,
        0.044145907440015675,
        -0.019151732553888468,
        0.30664403637935,
        -0.4330561686405703,
        -0.036539874816672535,
        -0.050323515690188225,
        0.4381934122702974,
        -0.37600801152337904,
        -0.09614510791271591,
        0.06124620843334361,
        0.2214274202691784,
        -0.431742979288527,
        0.005556450565333604,
        -0.35056180719287733,
        0.09078778862316983,
        -0.02669826796882524,
        0.06392425086728426,
        0.02003043601671739,
        0.15426747060122803,
        -0.2901580100258606,
        -0.2766564166521095,
        0.4960057785470231,
        -0.2625426693851258,
        0.009793563019763751,
        -0.20303012738362902,
        0.07187447495434718,
        -0.36231455938254653,
        -0.32426078546304726,
        -0.29575943042720265,
        -0.34855497567918714,
        -0.423207096365778,
        -0.052504735990086315,
        0.4375707668511485,
        0.0027368448264409873,
        -0.091177588572538,
        0.11597946653115576,
        -0.3063560516843734,
        0.03828782900096228,
        0.21882718797425804,
        0.41664031677379254,
        -0.4386601369965454,
        -0.4700993517342935,
        -0.12893896558967477,
        -0.14095786318932013,
        0.2284984476703763,
        -0.36247509599516436,
        0.2377280204143717,
        0.23687059312348746,
        -0.3166343392060582,
        -0.4465602744724735,
        -0.18470925695256502,
        0.4412485551472727,
        -0.34578684014709105,
        -0.05512950268125272,
        0.4215609501056947,
        0.4428749259174737,
        0.26263124318808473,
        -0.12518055930078986,
        0.09405548775262285,
        -0.48816818670136497,
        0.017988767494136138,
        0.0038927983433703073,
        0.44037995148340914,
        0.3277046102174622,
        -0.12160828488088316,
        0.30696024229851726,
        -0.3530174389744565,
        -0.15850845821755566,
        0.3404476338846518,
        -0.44185444743237023,
        0.19288714387598493,
        -0.18786573532387418,
        0.13800406679548172,
        -0.18767454978258769,
        0.292391036841267,
        0.04727570328202402,
        -0.49529199536129964,
        -0.4664449987012417,
        0.07003172316111017,
        0.456376634907641,
        0.3349984038578818,
        -0.3910983524546995,
        -0.11893025395071011,
        0.486134524401442,
        -0.4163896665445226,
        0.07942988826375619,
        0.019382864802810262,
        -0.35408203055367915,
        0.41189282645734493,
        -0.45052590753927113,
        -0.2837323511385649,
        0.24727814065699638,
        0.08086879505001765,
        0.3412911317867805,
        -0.061505146265297794,
        0.17304372384182443,
        0.47604606656328785,
        -0.004790736644264992,
        -0.4369598257613587,
        -0.359328408529205,
        -0.3988104118286586,
        0.06848531075600695,
        -0.3438832330868429,
        0.1750918316532104,
        -0.22935931122002018,
        -0.4090361779319446,
        0.48883578132614747,
        0.3438497087117429,
        0.3762448088191618,
        -0.22196514591658267,
        -0.37770805800730656,
        0.2601505389316341,
        0.39048467952207255,
        -0.09630935705302268,
        -0.31524582094207687,
        -0.027089764006795636,
        0.28171997899634904,
        0.33658359702866536,
        -0.4070471224226335,
        -0.1951665955964461,
        -0.08076109835113121,
        -0.1159041189464658,
        -0.1190023948973794,
        0.0979482033719773,
        0.2549223189015972,
        -0.1802276385907401,
        -0.09743831181727425,
        0.01605246390330972,
        0.3350275280844881,
        -0.3043638987479328,
        -0.4378732140211251,
        0.45974494508003905,
        -0.18066378533646432,
        -0.4482791578985904,
        0.2713459163999772,
        -0.022599858352538527,
        -0.08972752197402245,
        -0.13597343662563688,
        -0.10090160556742866,
        0.02427564958207351,
        -0.19301789250754897,
        0.10370791133290658,
        0.40645422897719463,
        0.2533603729453183,
        -0.33225523587193373,
        0.07057852631779071,
        0.060233531893193915,
        0.3517946601273445,
        -0.46766824907531757,
        0.3293929906533152,
        -0.19595118211119966,
        -0.10071607192074461,
        -0.1885214813926862,
        -0.4861630967851125,
        -0.26335103853059394,
        0.3157702129618274,
        0.0006362765677943027,
        0.2406752286282412,
        -0.047644256666437124,
        0.29366069169423237,
        0.042748814677713076,
        0.10942331263752691,
        0.4220929325752062,
        -0.2303722835130363,
        0.12651041534297203,
        0.40389864954673904,
        -0.45390998580865016,
        0.12655761364662343,
        0.2140787481991887,
        0.453704487496182,
        -0.4525883532294366,
        0.18732854255944886,
        -0.4689841547690341,
        -0.43025411360612853,
        -0.3601534136162392,
        0.42977006568421683,
        0.3791848899657604,
        -0.1597025386718941,
        -0.37477684932307476,
        -0.05302132838757523,
        0.3814706275818447,
        -0.2251412967989127,
        -0.062229826931098464,
        -0.19596134528279663,
        -0.1884906329638425,
        0.08787423131001737,
        -0.42567121325142665,
        -0.49698100477302587,
        0.22804190753799425,
        0.017557530692146273,
        0.1867688161806118,
        0.1659390153912439,
        -0.39272709170285336,
        0.4835705456959084,
        -0.2804344567455529,
        -0.41381106297010684,
        -0.0995743555995845,
        -0.2843323950110932,
        -0.10205978082385203,
        -0.3820959296640596,
        -0.17838659799633927,
        -0.07144545810624903,
        -0.3042020839328494,
        0.1423361353317273,
        -0.29807931062414883,
        0.37112307925640775,
        -0.3382478568366144,
        0.1060431234497674,
        0.487720693516167,
        -0.4784706475222662,
        0.40530271498202186,
        0.19636984740776298,
        0.3807557615185455,
        0.3085127397282893,
        -0.4205859543922562,
        0.21822913184008386,
        0.4625388900608426,
        -0.4628375760049924,
        -0.37371973222059884,
        0.3719813323912504,
        0.1693247922885346,
        -0.2814921422154748,
        0.40742743988720864,
        0.04247255846298004,
        0.044744483501862886,
        0.40645781827367156,
        -0.2053075506898302,
        0.16328450214466295,
        -0.338633560207364,
        0.44440979148247073,
        0.05480577557089783,
        -0.1382744693908755,
        0.3726542832349262,
        0.10779197670234963,
        -0.2190880222963797,
        -0.46260274599953,
        0.037269423235184784,
        0.1836807471316556,
        -0.4341502064371858,
        0.18790469334200255,
        0.08049121002545578,
        -0.24923192771320746,
        0.4164075018801584,
        -0.11271128282471021,
        0.20255911364939894,
        -0.43169799359654604,
        0.16311090649496984,
        -0.06653765802124945,
        -0.41866605098142484,
        -0.31584235523946547,
        -0.11852017047882957,
        -0.31649634525608517,
        -0.47241203568635515,
        -0.47945620871410155,
        -0.4482027180809204,
        -0.3803832734383741,
        -0.23240712273053732,
        0.43638055368108997,
        -0.48091691866921293,
        -0.026070457375249045,
        0.3206772256927217,
        0.43099563870898905,
        0.28844306901180916,
        -0.4847414536151493,
        0.1601318707982562,
        -0.3048973626793372,
        -0.40966279180427945,
        -0.07484777061312087,
        0.33572964485049894,
        0.009358706463182931,
        -0.1755442863553539,
        -0.2629418870462428,
        -0.1655006684305942,
        0.28913434703400376,
        -0.10700678227670601,
        0.2003456974811979,
        0.3522623787625314,
        -0.45536149239676593,
        -0.48383616348505387,
        0.22854139826302666,
        0.06762186143090743,
        -0.4863001663557127,
        0.19462902916841196,
        -0.10094346833048495,
        -0.0893278652927757,
        -0.3349910785682989,
        0.38506453028630183,
        -0.44351999857187174,
        -0.3858467734480159,
        0.24262081995464346,
        0.2446649277362659,
        -0.47898631596956487,
        -0.384297397901629,
        -0.4845370782010193,
        -0.2602559904448962,
        -0.0985005002651651,
        -0.2350883384477449,
        0.47137908984571464,
        0.21531902941458658,
        0.4489390518174913,
        0.20072790739311908,
        0.27571576254707975,
        0.027828852829509976,
        0.20076004338103526,
        -0.0787585570704683,
        -0.12436048341704042,
        0.15874652266679523,
        0.36153112070641324,
        0.10086015202478082,
        -0.49227715910700975,
        -0.11153199394849378,
        0.1701085941765108,
        -0.23233271796958332,
        0.29565454349773623,
        0.08160018367040356,
        0.19620855352853783,
        0.09239506410193432,
        0.4831100391828741,
        -0.4727977887810849,
        -0.4550318369214945,
        -0.295945889373709,
        0.13295799659366647,
        0.1395873286025252,
        0.37436499269944334,
        -0.17683052756877782,
        -0.30986453408156234,
        -0.01411928787411354,
        0.3348498626537306,
        -0.40629019219942464,
        0.4991508187774505,
        0.32223686012151154,
        -0.08522212675222463,
        0.49601995943450505,
        0.06526158085292089,
        0.2964360409389344,
        -0.010818137455094079,
        -0.2509327592125392,
        -0.4621460446254486,
        -0.25335165963014783,
        0.42893222616973803,
        0.1668596837756401,
        -0.3105048655896049,
        0.12116919316205532,
        -0.08803618256217982,
        0.06480876108734601,
        -0.03452190257125909,
        -0.4102129474893791,
        0.09876502734898396,
        -0.1177095729801958,
        -0.2323218510602928,
        -0.006966717091490993,
        -0.1328551580650329,
        -0.0008199158210451252,
        0.13312926270723668,
        -0.21174667781737855,
        -0.03486552899172235,
        -0.18135691322872483,
        -0.3737477095553077,
        -0.48532895385755603,
        0.3815430052135105,
        -0.031458342059916045,
        0.3574039732519356,
        -0.2148993800608544,
        -0.0391192582295552,
        0.48607619087402576,
        0.4968226256694176,
        -0.26735098254963385,
        -0.4328013047758208,
        0.251933604359318,
        -0.23230511032175805,
        -0.32611340500544017,
        0.4459503543345009,
        -0.09057588375620151,
        -0.20429302639943936,
        0.04415075481803887,
        -0.17726516191749686,
        0.2353695579427968,
        0.025458614228281107,
        0.3966357016859199,
        0.3404219608117405,
        0.28714694121890527,
        -0.16448682577599882,
        -0.08632045014988532,
        0.23641671586884205,
        0.3853966689047893,
        -0.002245493237862939,
        0.4308284379434366,
        -0.3217794388694811,
        0.17353587062064568,
        0.37823507692341196,
        -0.3737738122187295,
        0.29282870191344157,
        -0.14049775406194964,
        -0.23005209607933774,
        -0.32190354775623764,
        0.46335137601559206,
        -0.4572049052311762,
        -0.09151322158929776,
        -0.41141862263970597,
        0.2794232979551342,
        0.10333187282442935,
        0.3291126219161862,
        -0.20791672061749933,
        -0.29205057093898656,
        -0.4190354011708942,
        -0.3947333012814417,
        0.48814699185082266,
        -0.11717363380495327,
        0.16164603004244427,
        0.3085998742824546,
        0.40245646599361196,
        0.19607260947400573,
        0.3987442829262047,
        0.21297251022108776,
        -0.4123676003642688,
        0.276864243854146,
        -0.07576827145267107,
        -0.2122376556791895,
        0.19752196667079014,
        0.2837657961685611,
        -0.45504951062769317,
        -0.00016198162666658522,
        0.2602537817922388,
        0.4229913745628321,
        -0.2432409470533291,
        0.0855211310116144,
        0.2524705217590667,
        0.408925462948452,
        -0.29969818164802464,
        -0.02728469438757042,
        -0.42756704866495343,
        0.40598343304754547,
        -0.03807144459294998,
        0.10009030743777625,
        -0.05146967356087728,
        -0.34432902969178825,
        0.4329909631767648,
        -0.11843340638593536,
        0.22259901218098266,
        -0.13095009198645902,
        0.040324436909784045,
        -0.08087658828501498,
        -0.035073643232165774,
        -0.3967587219043678,
        0.1439059323236963,
        -0.16594678853341194,
        -0.31946875669692054,
        -0.45632251140687363,
        -0.09373172635819316,
        0.4320438107754102,
        -0.26401722667523375,
        0.0794876708785397,
        -0.18412898649421017,
        0.47878430425723884,
        0.20704076282769346,
        -0.3883546728310958,
        0.0237513424903395,
        -0.31515296034518536,
        0.40823826241157024,
        -0.38173152711251135,
        0.32706550045783056,
        0.24607835428485136,
        0.14920311576947876,
        -0.09143316620980269,
        -0.38427843903541925,
        -0.46193092743665953,
        -0.3239242911671001,
        0.3281240774104809,
        -0.15828336121957942,
        0.38618076514721944,
        0.23300361722971719,
        -0.1180500949809139,
        -0.4015625611190219,
        0.15339046687962365,
        -0.4361281632685923,
        -0.08200076751960916,
        0.477367047968435,
        -0.03970619075551185,
        -0.2444618735500148,
        -0.014139263370320787,
        -0.029240541862287417,
        -0.146437562981516,
        0.04121449620001283,
        0.03658976216850307,
        0.4100370373662334,
        0.18914225784791372,
        -0.18964694428698436,
        -0.48382858329824086,
        0.08961698063812229,
        0.13513103255694314,
        0.3113034980546505,
        0.4961176536416414,
        0.073630009744723,
        0.055709819116063874,
        0.1171014724634325,
        -0.04543809564512502,
        0.06403987597991745,
        0.07918468318542204,
        0.46415103926767887,
        0.20111338656389266,
        -0.0016991091954409177,
        -0.49776009093301354,
        -0.05102878275632339,
        0.36041134062266855,
        -0.29069809025154647,
        0.08940641912968361,
        0.338451362454652,
        -0.42575226307784564,
        -0.48820764233222635,
        0.4360572136236014,
        -0.16926972523313966,
        -0.3109766722028924,
        -0.424113629831133,
        0.48889056959267674,
        -0.4867593047387988,
        -0.1617655060060783,
        -0.12762773439412434,
        0.049889473623862535,
        0.19635189531767316,
        -0.27991096882596267,
        0.11245713926826317,
        -0.2477490397713632,
        -0.2888218732178366,
        0.08612835227021065,
        -0.03605401755465554,
        0.17800327458148213,
        0.45128768081209014,
        -0.3540565557159423,
        0.29233339681868553,
        0.23631916484909388,
        0.2359447925930258,
        -0.42902174147974736,
        -0.11479395068102782,
        0.15677918180024197,
        -0.1576200480221137,
        -0.2643236307492939,
        -0.3226500993614415,
        -0.1930010176384357,
        -0.12330459250229175,
        0.024607287192681793,
        -0.021051704513329494,
        0.24924494188103186,
        0.43781461091803997,
        0.4687768659665462,
        0.11631331986005655,
        -0.025124650753773348,
        -0.4871484713852845,
        0.21008074054617176,
        0.10774620437999094,
        -0.07099764756680493,
        -0.4851288013461963,
        -0.07128239369275535,
        0.4137802845782589,
        -0.25360818934886553,
        -0.21525738301987785,
        -0.2919726088386019,
        -0.08743421705858923,
        -0.4498068171240204,
        -0.41434398887199375,
        -0.18436028179546216,
        0.16433737482527067,
        0.030877694873170713,
        -0.02040289587308275,
        0.06628798433819194,
        -0.19860342737221603,
        0.3275891567554009,
        -0.04547389947107161,
        -0.12174486284302422,
        0.4811963703824401,
        0.27366919556433644,
        -0.25989693482843823,
        -0.1310294505211561,
        0.16951004921642343,
        0.06254982787428354,
        0.18197396824636014,
        0.0063392887808559895,
        -0.4967824238703298,
        -0.48373108624586336,
        0.26635155655945897,
        -0.31892889411959535,
        -0.28708160532823235,
        0.05853648608533524,
        0.12334690298118056,
        -0.1501953079966939,
        0.07058309962344766,
        -0.298884242746589,
        -0.3498629384301738,
        -0.47559381437850534,
        0.2106780223093616,
        -0.24248529179915412,
        0.48159374452498394,
        0.0589877070236966,
        -0.052751471521573445,
        0.1307436456156017,
        -0.39791909735098774,
        0.33197780512689756,
        -0.08046112946693718,
        0.302488868343077,
        -0.0077773718907145906,
        0.45434801678162673,
        0.48640126936274763,
        0.1758710672397198,
        -0.38473988923266866,
        -0.3956904088294252,
        0.43555866584903,
        -0.20819078586449713,
        0.34193424573793585,
        -0.30779369439644466,
        0.1978201385706133,
        -0.2675982175862178,
        -0.29162193099442246,
        -0.20727062146891773,
        0.4188338301886718,
        -0.26975681977045485,
        0.18212415428259932,
        0.03937337900540472,
        -0.06735130489895036,
        0.07151946994495628,
        -0.39833598554104155,
        0.09896891195459656,
        -0.30881715606442306,
        0.042003423073747714,
        -0.33463074685615835,
        0.40291514043843657,
        0.029721498433913363,
        -0.4846906891006755,
        0.21095046681786467,
        -0.26018884071584425,
        -0.05684050423183418,
        -0.4339418328919926,
        0.21826024723463833,
        -0.06082106696434586,
        0.03688447307247644,
        -0.3722324715587507,
        -0.14555547867783458,
        0.14982167644898736,
        -0.20567488865246097,
        -0.16258256687054728,
        -0.4020816936112773,
        0.25576481928671746,
        0.25116987199199603,
        -0.37783751271345156,
        0.4656107686100047,
        -0.3758060437379914,
        0.20807546922782194,
        -0.026870931607752002,
        0.05040436991898356,
        -0.41714546584605705,
        -0.22144782276026087,
        -0.0016817642233162289,
        -0.0031077648165650507,
        -0.2898833312579304,
        0.3972194953539837,
        0.38389590617280445,
        0.3593641144266174,
        -0.3314154636544623,
        -0.39966837934090726,
        -0.20543215991621067,
        0.25155495223840996,
        -0.2582392422553361,
        -0.0486544578088941,
        -0.07865691700668243,
        -0.38489619450557233,
        -0.2830439488577683,
        0.49641543816140477,
        -0.03247963229705553,
        -0.34138463685782805,
        -0.4394308882276816,
        -0.052595937346934796,
        0.264410236167008,
        -0.1940160262389019,
        0.3602829389734492,
        -0.1677282461805495,
        0.29586031180431827,
        -0.22347957148489284,
        0.20179362424019853,
        -0.0825184796328341,
        -0.366049822695122,
        0.2450230674843734,
        -0.33130512160829484,
        0.13937535555590663,
        -0.12504621046868658,
        -0.4760016770513472,
        0.24678381153246087,
        0.4370045864696881,
        0.07959356578856447,
        -0.4180330352874341,
        0.03851366238889886,
        -0.4638678856641867,
        0.23035068203995612,
        -0.0497680072144947,
        0.1854934026184143,
        -0.36761756732093964,
        0.26502863405198773,
        -0.36527226193646223,
        0.09409820483272358,
        -0.35272994285934733,
        0.4903560570241784,
        -0.35143296610838914,
        -0.3824527785815591,
        0.18140577051090467,
        0.44916756166060856,
        0.03838050324908082,
        -0.03935069940153568,
        0.3012708321146086,
        0.46233734994753684,
        -0.004568738367674685,
        -0.40829133209698143,
        0.42063669865965536,
        0.34120293238551136,
        0.25043191151210276,
        -0.007080318429865007,
        -0.05598771864657959,
        0.1172024194805702,
        -0.46937596722744124,
        0.19027459157028226,
        -0.2533624209528813,
        -0.17244752919002582,
        0.00732776406341995,
        0.08252929021134259,
        -0.4726440129552363,
        0.190133375756799,
        0.4373756626243127,
        -0.007938536855723655,
        -0.1954556142537992,
        -0.18455158384699433,
        0.41161852839645596,
        -0.03646712909339345,
        -0.08784000527845948,
        0.05337351052612627,
        -0.19610271127232248,
        0.34197646832335715,
        0.30257049647104495,
        -0.05755674704894376,
        0.47841699069510124,
        -0.35749837086779535,
        0.3119795031864647,
        0.02391112595581535,
        0.037194649102745836,
        -0.23045076910633477,
        0.40732453568392113,
        0.10933602528940312,
        -0.18019919872401047,
        0.3687779039731087,
        0.193444207882997,
        0.4598368027226488,
        -0.024985637161688556,
        -0.15465558303314653,
        -0.008583156934276803,
        -0.19861443013786528,
        -0.11030761822625712,
        0.10202515759872699,
        0.4792269500990234,
        -0.42956916722803207,
        0.18393782559037253,
        -0.3104412721964358,
        0.3543335570948236,
        0.053273114893154894,
        -0.09922013864504087,
        0.2903482718935222,
        -0.47523307396424563,
        0.32026749485732775,
        0.43445721152973993,
        -0.3737667045961425,
        0.2675805847578242,
        0.25321527687462275,
        0.43043494669117377,
        -0.11059084186992585,
        -0.02292012090015938,
        0.21039283641821516,
        -0.09225973882332272,
        0.0406009698146651,
        0.15494255794211964,
        -0.4465219952586261,
        0.3778014448318818,
        0.3652001538921972,
        0.03363124459107203,
        -0.26262894326622277,
        -0.2823528175956972,
        -0.058748709903337915,
        -0.11640234101810465,
        0.03988850330322524,
        0.15391107245838798,
        0.30348143736198374,
        0.19894426838808,
        0.2541763661394758,
        0.18646579921685047,
        -0.05333706674461425,
        -0.46174984938002583,
        -0.09436732897330824,
        0.30559457582642435,
        -0.12149213684422544,
        -0.4531594497521779,
        0.07692148418405997,
        -0.17414148991576106,
        -0.44127008033963877,
        0.4172901575825647,
        0.06912489042877745,
        0.3250523715287249,
        0.34615100599312065,
        -0.16885668378452168,
        -0.0838533874795877,
        0.12482380003060967,
        -0.2415306551792049,
        0.25149918959243056,
        0.15030616450331813,
        -0.21699568511587852,
        -0.3374364707384334,
        -0.47781425618220463,
        0.32538889574944163,
        -0.4361088818284512,
        -0.3011374016798649,
        -0.47190559355685757,
        -0.2257506130822805,
        0.1988813141376966,
        -0.22348771067811746,
        -0.39334565285864476,
        0.3676371528495498,
        -0.0627345985701182,
        -0.25256491391688674,
        0.22877601376294965,
        -0.3479730467573058,
        0.020004462918828514,
        -0.2432025925421717,
        0.14220216804510866,
        -0.4178445138221365,
        -0.4911000832982634,
        0.37990213496232317,
        0.08828895739059328,
        0.38581401413790795,
        0.13093219754377894,
        -0.4376301157939161,
        0.4084526232380362,
        0.4141842954428574,
        0.17577470273044715,
        0.15086918880201572,
        0.0885375410609488,
        0.11091435321025123,
        0.4772314050705042,
        0.479721432329943,
        0.4236124231598237,
        -0.21317429849640757,
        0.42418047464383435,
        -0.2530459155353867,
        0.2724003438329041,
        -0.41296877821809097,
        -0.3471196675705249,
        -0.32359169638052643,
        -0.46447088433135864,
        0.2260689878665143,
        -0.1473120980203132,
        0.3469671762930906,
        -0.3875505271166746,
        -0.4020912884620722,
        0.0256995627999842,
        0.26258598144854484,
        -0.36664288680997603,
        -0.12537502559467728,
        -0.3417984133012729,
        0.32819831292541013,
        0.12670272448611974,
        -0.3355662870553202,
        -0.4774065641122738,
        0.04859351655868782,
        0.1285066629335525,
        0.35908822414760355,
        0.46017552475428436,
        0.4209906841766846,
        -0.2867507479311856,
        0.09566114262799785,
        -0.050690889881234824,
        0.2051764662828781,
        -0.07691891630320602,
        -0.13237229280133112,
        -0.40102521743592023,
        -0.03311297964119997,
        0.37551434836465514,
        -0.29440718744487415,
        -0.3537994470856529,
        -0.11679646466910543,
        0.05672453843080871,
        -0.0627280332870711,
        0.49588295993741094,
        0.3623255671941631,
        -0.1200842719304267,
        0.32931850638386384,
        -0.2566776246951187,
        -0.043134380872349554,
        0.3019528235139598,
        -0.07584799307119872,
        -0.2517684835697581,
        -0.30075996212492706,
        -0.13891339473297293,
        -0.48954541155223874,
        0.14604111279023357,
        -0.4353910105983104,
        -0.4738351265231371,
        -0.06785755335199684,
        0.44023838028169326,
        -0.27105755012531874,
        0.1945322634365957,
        0.2834803727152966,
        -0.2959330382746812,
        0.48165257685006213,
        0.004501689649957563,
        0.011017438726968587,
        -0.40186749052826043,
        -0.02489318499169857,
        0.14736272466039912,
        -0.4918189544278456,
        0.359003374461881,
        0.2105941830826803,
        -0.24125206040262248,
        0.3253744559367363,
        -0.3529944002717156,
        -0.4843236706635824,
        -0.12551231452756095,
        -0.4022899347718917,
        0.47922700289548625,
        -0.472926242471688,
        -0.1319805351792338,
        0.21348839224005034,
        0.07853221056094195,
        0.0326904191448566,
        -0.1666639348300809,
        0.27058780252655834,
        0.25724988825807427,
        0.31830708355941106,
        0.3312738793949087,
        0.41943931883801244,
        0.24656165278557463,
        -0.1613757644976992,
        0.16994443406547555,
        -0.46708069879052916,
        0.19847503897804208,
        -0.28634846133674474,
        0.005249489625870685,
        -0.25423658534077387,
        0.48623889547299703,
        -0.38044958501542914,
        -0.42949509391711094,
        -0.12023450728475604,
        0.2218185566108548,
        -0.07279449687126183,
        -0.21592172506806506,
        0.29220240757684535,
        -0.13101092869942976,
        0.4619891915420461,
        0.49469361142748347,
        -0.39088260983145207,
        -0.1062799771023436,
        -0.2991930679587669,
        -0.12535659644929453,
        0.05610452206061334,
        -0.0542146823270897,
        -0.15767538914361545,
        0.2993671333139093,
        -0.10892189702072097,
        0.3599483993648387,
        0.1322537839656499,
        0.2130605492009645,
        -0.07758118266987102,
        -0.20710689182738917,
        -0.17644348794215914,
        -0.13628003531032373,
        0.017493115455118113,
        -0.03815955572805019,
        0.42578351512486934,
        -0.3594095169137832,
        -0.0193988681684103,
        -0.2699857984321392,
        0.17436088152950935,
        0.45593231647034993,
        -0.24576545410387485,
        0.35413904487483894,
        0.4014215203120646,
        0.3916094725387379,
        -0.4014775459015266,
        -0.17628600377558412,
        -0.061716229187106286,
        0.17552815156607193,
        0.06102010819378778,
        -0.11190669008947096,
        0.45010124707432264,
        -0.06585295471853181,
        0.2780873275526894,
        0.10418452690757773,
        -0.29237768700388356,
        0.4415582214494138,
        0.2675741515650828,
        0.2413421585780895,
        0.16438781905454036,
        -0.16074462746161122,
        -0.027645789494163187,
        0.2854086707972635,
        -0.16241088623026045,
        -0.37081654686404497,
        0.3894428247380355,
        -0.4201225360688077,
        -0.2871822946362206,
        -0.46148379941035766,
        0.253540007065267,
        0.07150141971662638,
        -0.30955528432558643,
        0.15782069493048712,
        -0.20865498131638527,
        -0.4399453097734132,
        0.20122304406797042,
        -0.48543550639466826,
        0.2320914594027499,
        -0.3634458673134111,
        0.13948391969335006,
        -0.374922570607521,
        0.2005828901841583,
        0.4918373231878308,
        0.384120069786678,
        0.24525445753730624,
        -0.49926552512480793,
        -0.05420728522409013,
        0.2785288191147026,
        0.49107107443614806,
        0.4474610505263372,
        -0.3988780205990935,
        -0.1914290061271926,
        -0.16809121272278227,
        0.36932514275482176,
        0.3618815665576186,
        -0.0016134179375119073,
        0.16616132236793957,
        0.29806379916920456,
        0.45737572229277046,
        0.17208752034285502,
        -0.02126295319954774,
        0.22607490887144344,
        0.4117522364366737,
        0.16859147765109483,
        0.31959755713545657,
        0.24176441864771303,
        -0.4730286770816252,
        0.03931096756763364,
        -0.24726081222720286,
        0.387535164583375,
        0.456617023620574,
        -0.4452766465036275,
        0.22419573127078785,
        0.3040119931517975,
        -0.24863211736845314,
        0.05413049743393916,
        -0.3808657634943984,
        0.20543637748322296,
        -0.11216814654209972,
        0.04596171693098561,
        0.41222238395146993,
        -0.37330656797258266,
        0.44512448106272273,
        0.4941387527698512,
        -0.2101030687343428,
        -0.3978601308272024,
        0.4333236781103237,
        0.1095633315624277,
        -0.46649891988514425,
        -0.10161363673002011,
        -0.025692396933655104,
        -0.12434856795672322,
        -0.2173509628929038,
        0.2798174589190022,
        -0.05437604533609619,
        0.3634003619006114,
        0.4961957592333105,
        0.10815142851718251,
        0.027893385579002894,
        0.07729487334128238,
        -0.3648152722158986,
        0.21432589575169392,
        0.3121624192847743,
        0.465399635078941,
        0.1932947259859319,
        -0.43253069587590576,
        0.2032340239506838,
        -0.27971126505202737,
        0.3363761039547316,
        0.4178841281454502,
        0.3466986808989211,
        -0.06699946660406009,
        -0.2686027135058684,
        -0.3366783094371648,
        -0.03273001463303904,
        0.09102893066537865,
        -0.10284094164197888,
        -0.21895407297453662,
        -0.03659722664734599,
        -0.45859084865464184,
        0.01909017822011405,
        0.3478177284219923,
        0.31938226995617836,
        0.0711425511515098,
        0.140045729420734,
        0.41890672150452535,
        0.3667848346953848,
        -0.2835738679887335,
        -0.20989795633919595,
        -0.4306400527299312,
        0.09682105499013338,
        -0.062069954263428095,
        -0.17182596731776945,
        -0.32381996518531064,
        0.3915844929226613,
        0.34350533664088734,
        0.4244729573886614,
        0.10234662773063152,
        0.446185176624334,
        -0.4488655476799981,
        0.2462401846424983,
        0.2867909538800618,
        0.03156900002164609,
        -0.17829984970078006,
        0.46145938186779234,
        -0.23342385951372113,
        0.49425594374710846,
        0.41153233792905386,
        0.2175005836556302,
        0.4426766165220801,
        -0.1763549592312852,
        0.3931983126208982,
        0.35993935987181935,
        -0.34423089436859444,
        -0.3237336089757542,
        -0.49661561530724097,
        0.4994692087786753,
        0.2679734180842619,
        0.22619111699542804,
        -0.20852588229148927,
        0.4536631192685069,
        0.05262347318007121,
        -0.49003227757341394,
        -0.1298459605867569,
        -0.16794164911756793,
        -0.2916428260041445,
        -0.04133078397757728,
        -0.06916513807004843,
        -0.4222077322776515,
        0.1971335199636156,
        0.023415821496362454,
        0.3621198748555837,
        0.36190964136275616,
        0.18691209080418303,
        -0.4678428964115098,
        0.0061560473261284,
        -0.10807824314635806,
        -0.42759796925279925,
        -0.274829958022329,
        0.46980149859126874,
        -0.050970613953809085,
        -0.19205610669051798,
        -0.2935661478400282,
        0.20288367474720292,
        -0.18197348443804917,
        0.48671951395454716,
        0.28611237965532643,
        -0.05841454975720339,
        -0.31335637575701447,
        -0.1105238254209514,
        0.32952184405648155,
        -0.04467905215434176,
        -0.14602824277736193,
        0.07401018588999153,
        0.36493443922520663,
        -0.3060540359948687,
        0.45269598511969456,
        0.058602177922436605,
        0.2437145407426059,
        -0.22990632406920253,
        0.33366091030765843,
        0.29091757614359925,
        0.3481899862822777,
        -0.15288955790652659,
        -0.15893607457793457,
        -0.10681556368977652,
        -0.40065998008305326,
        -0.34046041790472903,
        -0.141671321919967,
        0.2508085705397849,
        0.03509284772188648,
        0.4566888591502618,
        0.42591074327470047,
        -0.3887200930646375,
        -0.40429517346529786,
        0.12513663854854917,
        -0.2709907021106037,
        0.45845115903839717,
        -0.43967702947375775,
        -0.19266539204529998,
        0.4031294667623585,
        0.29336170851292565,
        0.3357368342707713,
        -0.2720962278840261,
        0.3610622548524175,
        0.4008887399299492,
        -0.030176250606348987,
        0.4846040643745584,
        -0.23149354428800295,
        0.17303436803729588,
        -0.2466988041756455,
        0.4092094143908599,
        -0.32624298380545447,
        0.46182220492122716,
        0.20406099217148477,
        -0.32846947835383333,
        -0.4282280702929062,
        0.3607432878497291,
        -0.17112765204930203,
        0.03741461761268339,
        0.2827484831349466,
        -0.46002395140554864,
        -0.26807664886609106,
        -0.08150211066975321,
        0.11474157141395458,
        -0.2998182729633524,
        -0.49647647940560014,
        -0.24149280119006056,
        -0.28234815106955946,
        -0.37079696599472123,
        0.48633683319099497,
        -0.3755110043045433,
        -0.4773775161135797,
        -0.24574020238686722,
        -0.26313471129397537,
        0.4662462097080028,
        0.074716573991633,
        0.27348186236789773,
        -0.15738065913477106,
        0.05350460937453427,
        -0.49774207619996924,
        -0.49907356241696543,
        0.05465794144224312,
        -0.1275170807492103,
        0.25599838223709526,
        0.407214043778214,
        0.20307471827380374,
        0.17732990527795023,
        -0.3092403660680393,
        0.17584831740097773,
        0.47474914306100524,
        0.04681693897409123,
        0.18135015097226337,
        -0.44984286730063205,
        -0.48732262132477655,
        -0.021689886800072666,
        -0.22843943867391614,
        0.14326393969047468,
        -0.38033560295108126,
        -0.10932497241606476,
        -0.27676499031422075,
        -0.30212693604776686,
        0.09262845255683849,
        0.30672195636132205,
        -0.39863399422880186,
        -0.40834408797900423,
        -0.18296619259562608,
        -0.23947991462395446,
        0.11386076938821965,
        0.36880211560214815,
        -0.00976386596843215,
        -0.34318932778680356,
        -0.4200991760345303,
        0.12115835652467866,
        0.3956948101081408,
        0.2666268754936163,
        0.2395651140434394,
        -0.4187894787001528,
        0.09351439339322554,
        0.27533950647698124,
        -0.12596290300220148,
        -0.23236576526099528,
        0.3517752822245611,
        0.4179912112706764,
        -0.4940488362915506,
        -0.2830370681175499,
        -0.02940660312274579,
        -0.2069471268438654,
        -0.23865770353458615,
        0.3827607884472264,
        -0.26352243992297364,
        -0.0861935982420059,
        -0.4561458540657104,
        -0.14039738538143176,
        0.20475958016839957,
        -0.47577515070473275,
        -0.1943437643432524,
        0.3719677559160858,
        0.12393685157968082,
        0.10322691600573941,
        0.29588886604539566,
        -0.34371079732967713,
        -0.39245191942491753,
        0.3904194436518559,
        -0.34778122932233235,
        0.22797513679752435,
        -0.48498386092885604,
        0.2067189759416781,
        -0.4789302021359957,
        -0.2846301019284072,
        -0.2722827778826452,
        -0.37603128103902417,
        -0.22201085841648915,
        0.33938993417189267,
        0.37961441191973366,
        9.974782962773876e-05,
        -0.46109725416688185,
        -0.21808773192142183,
        0.2873832993149733,
        0.43855686501303603,
        -0.25117295271016926,
        0.021506292821982798,
        -0.34496168060880816,
        -0.4637106279290454,
        0.1163044651273224,
        0.34256492292389074,
        0.3470238774680632,
        -0.2118303868220437,
        0.15248448612186838,
        -0.30914038076868733,
        0.07856119861658939,
        -0.15766128789572786,
        -0.3555956354014901,
        0.40168566533353356,
        -0.18232748900190832,
        0.18466593110351992,
